{"learner":{"attributes":{"best_iteration":"389","best_score":"0.778399049859379","scikit_learn":"{\"_estimator_type\": \"classifier\"}"},"feature_names":["vtr_dau","kosten_verw","kosten_prov","spartek","status_id","Car_age_indays","estimated_total_paid"],"feature_types":["float","float","float","int","int","float","float"],"gradient_booster":{"model":{"gbtree_model_param":{"num_parallel_tree":"1","num_trees":"490"},"iteration_indptr":[0,1,2,3,4,5,6,7,8,9,10,11,12,13,14,15,16,17,18,19,20,21,22,23,24,25,26,27,28,29,30,31,32,33,34,35,36,37,38,39,40,41,42,43,44,45,46,47,48,49,50,51,52,53,54,55,56,57,58,59,60,61,62,63,64,65,66,67,68,69,70,71,72,73,74,75,76,77,78,79,80,81,82,83,84,85,86,87,88,89,90,91,92,93,94,95,96,97,98,99,100,101,102,103,104,105,106,107,108,109,110,111,112,113,114,115,116,117,118,119,120,121,122,123,124,125,126,127,128,129,130,131,132,133,134,135,136,137,138,139,140,141,142,143,144,145,146,147,148,149,150,151,152,153,154,155,156,157,158,159,160,161,162,163,164,165,166,167,168,169,170,171,172,173,174,175,176,177,178,179,180,181,182,183,184,185,186,187,188,189,190,191,192,193,194,195,196,197,198,199,200,201,202,203,204,205,206,207,208,209,210,211,212,213,214,215,216,217,218,219,220,221,222,223,224,225,226,227,228,229,230,231,232,233,234,235,236,237,238,239,240,241,242,243,244,245,246,247,248,249,250,251,252,253,254,255,256,257,258,259,260,261,262,263,264,265,266,267,268,269,270,271,272,273,274,275,276,277,278,279,280,281,282,283,284,285,286,287,288,289,290,291,292,293,294,295,296,297,298,299,300,301,302,303,304,305,306,307,308,309,310,311,312,313,314,315,316,317,318,319,320,321,322,323,324,325,326,327,328,329,330,331,332,333,334,335,336,337,338,339,340,341,342,343,344,345,346,347,348,349,350,351,352,353,354,355,356,357,358,359,360,361,362,363,364,365,366,367,368,369,370,371,372,373,374,375,376,377,378,379,380,381,382,383,384,385,386,387,388,389,390,391,392,393,394,395,396,397,398,399,400,401,402,403,404,405,406,407,408,409,410,411,412,413,414,415,416,417,418,419,420,421,422,423,424,425,426,427,428,429,430,431,432,433,434,435,436,437,438,439,440,441,442,443,444,445,446,447,448,449,450,451,452,453,454,455,456,457,458,459,460,461,462,463,464,465,466,467,468,469,470,471,472,473,474,475,476,477,478,479,480,481,482,483,484,485,486,487,488,489,490],"tree_info":[0,0,0,0,0,0,0,0,0,0,0,0,0,0,0,0,0,0,0,0,0,0,0,0,0,0,0,0,0,0,0,0,0,0,0,0,0,0,0,0,0,0,0,0,0,0,0,0,0,0,0,0,0,0,0,0,0,0,0,0,0,0,0,0,0,0,0,0,0,0,0,0,0,0,0,0,0,0,0,0,0,0,0,0,0,0,0,0,0,0,0,0,0,0,0,0,0,0,0,0,0,0,0,0,0,0,0,0,0,0,0,0,0,0,0,0,0,0,0,0,0,0,0,0,0,0,0,0,0,0,0,0,0,0,0,0,0,0,0,0,0,0,0,0,0,0,0,0,0,0,0,0,0,0,0,0,0,0,0,0,0,0,0,0,0,0,0,0,0,0,0,0,0,0,0,0,0,0,0,0,0,0,0,0,0,0,0,0,0,0,0,0,0,0,0,0,0,0,0,0,0,0,0,0,0,0,0,0,0,0,0,0,0,0,0,0,0,0,0,0,0,0,0,0,0,0,0,0,0,0,0,0,0,0,0,0,0,0,0,0,0,0,0,0,0,0,0,0,0,0,0,0,0,0,0,0,0,0,0,0,0,0,0,0,0,0,0,0,0,0,0,0,0,0,0,0,0,0,0,0,0,0,0,0,0,0,0,0,0,0,0,0,0,0,0,0,0,0,0,0,0,0,0,0,0,0,0,0,0,0,0,0,0,0,0,0,0,0,0,0,0,0,0,0,0,0,0,0,0,0,0,0,0,0,0,0,0,0,0,0,0,0,0,0,0,0,0,0,0,0,0,0,0,0,0,0,0,0,0,0,0,0,0,0,0,0,0,0,0,0,0,0,0,0,0,0,0,0,0,0,0,0,0,0,0,0,0,0,0,0,0,0,0,0,0,0,0,0,0,0,0,0,0,0,0,0,0,0,0,0,0,0,0,0,0,0,0,0,0,0,0,0,0,0,0,0,0,0,0,0,0,0,0,0,0,0,0,0,0,0,0,0,0,0,0,0,0,0,0,0,0,0,0,0,0,0,0,0,0,0,0,0,0,0,0,0,0,0,0,0,0,0,0,0,0,0,0,0,0,0,0,0,0,0,0,0,0,0,0,0],"trees":[{"base_weights":[-6.581153E-4,-7.339928E-1,5.903301E-1,-1.2295572E0,-4.5410848E-1,1.108577E0,2.4632207E-1,-1.6526998E0,-1.0398744E0,-7.2074443E-1,1.3362257E-1,7.715415E-1,1.3886887E0,1.0322226E-2,7.333506E-1,-1.8336121E0,-1.5011108E0,-1.3836881E0,-7.5892603E-1,-1.5463469E-2,-1.0570582E0,-1.4654502E-1,3.6934575E-1,5.579275E-1,9.3354523E-1,1.2508192E0,1.5564615E0,-1.8483801E-1,8.77227E-1,5.9381783E-1,1.1338651E0,-1.87722E0,-1.7096432E0,-1.7141627E0,-1.3972216E0,-7.119535E-1,-1.5629836E0,-1.001986E0,-5.976503E-1,-2.616259E-1,1.9663213E-1,-1.256527E0,-8.4677255E-1,-1.0983289E-1,-8.9844394E-1,1.5833488E-1,5.0492287E-1,4.4531313E-1,6.5458435E-1,8.320171E-1,1.0201201E0,1.0969341E0,1.2907376E0,1.4644237E0,1.6387343E0,-4.278637E-1,4.9491607E-2,5.618701E-1,9.864384E-1,5.5085266E-1,1.3159839E0,9.749754E-1,1.3595991E0,-3.7322575E-1,-3.4897977E-1,2.6311187E-2,-3.3978766E-1,-3.7583867E-1,-3.1505388E-1,-3.1075636E-1,-2.4500726E-1,-2.0684804E-1,-1.04197174E-1,-3.463938E-1,-2.7661082E-1,-2.213231E-1,-1.755379E-1,-1.0299226E-1,-1.6886905E-1,-8.326122E-2,-2.2515422E-2,1.61841E-2,6.185539E-2,-2.8222442E-1,-2.1001905E-1,-1.9432372E-1,-1.3769525E-1,-6.376944E-2,-4.9855197E-3,-1.3272455E-1,-2.9864496E-1,3.4965597E-2,-1.591808E-1,1.00911796E-1,-1.3022688E-1,6.870776E-2,1.06516294E-1,1.0919976E-1,1.477478E-1,1.470909E-1,1.801119E-1,2.0197165E-1,1.505686E-1,2.1477245E-1,-1.615552E-2,2.3481327E-1,2.5874957E-1,2.910283E-1,2.5703812E-1,3.1031016E-1,3.3901078E-1,-6.306361E-2,-1.2414915E-1,-1.41345E-2,4.318519E-2,1.17129244E-1,-1.2904099E-1,1.7697603E-1,2.2826305E-1,5.189897E-2,1.22715876E-1,2.586222E-1,-1.0465938E-1,1.7633082E-1,2.1726906E-1,2.4854483E-1,3.1251654E-1],"categories":[],"categories_nodes":[],"categories_segments":[],"categories_sizes":[],"default_left":[0,0,0,0,0,0,0,0,0,0,0,0,0,0,0,0,0,0,0,0,0,0,0,0,0,0,0,0,0,0,0,0,0,0,0,0,0,0,0,0,0,0,0,0,0,0,0,0,0,0,0,0,0,0,0,0,0,0,0,0,0,0,0,0,0,0,0,0,0,0,0,0,0,0,0,0,0,0,0,0,0,0,0,0,0,0,0,0,0,0,0,0,0,0,0,0,0,0,0,0,0,0,0,0,0,0,0,0,0,0,0,0,0,0,0,0,0,0,0,0,0,0,0,0,0,0,0],"id":0,"left_children":[1,3,5,7,9,11,13,15,17,19,21,23,25,27,29,31,33,35,37,39,41,43,45,47,49,51,53,55,57,59,61,63,65,67,69,71,73,75,77,79,81,83,85,87,89,91,93,95,97,99,101,103,105,107,109,111,113,115,117,119,121,123,125,-1,-1,-1,-1,-1,-1,-1,-1,-1,-1,-1,-1,-1,-1,-1,-1,-1,-1,-1,-1,-1,-1,-1,-1,-1,-1,-1,-1,-1,-1,-1,-1,-1,-1,-1,-1,-1,-1,-1,-1,-1,-1,-1,-1,-1,-1,-1,-1,-1,-1,-1,-1,-1,-1,-1,-1,-1,-1,-1,-1,-1,-1,-1,-1],"loss_changes":[4.4837544E5,6.4033875E4,1.0213336E5,1.3369641E4,4.6238246E4,2.1574281E4,3.957614E4,1.407125E3,1.111107E4,4.8143164E4,6.0815493E3,3.5881953E3,2.8816719E3,3.9241816E4,6.2784453E3,1.18828125E2,6.1490234E2,6.227867E3,2.4801523E3,3.421907E3,5.7613594E3,1.1605107E3,1.4300625E3,4.8580566E2,5.1572266E2,4.1673438E2,4.198125E2,1.0781811E4,1.4658125E3,2.5837578E3,1.0373711E3,4.9242188E1,3.974668E2,1.8325586E2,5.1591016E2,6.7341406E2,1.2497734E3,3.3847266E2,7.043408E2,7.342656E2,4.8313098E2,2.4151016E3,1.4095312E3,7.350322E2,2.6624524E2,4.043454E2,4.7195068E2,1.9339502E2,2.3344727E2,1.9104688E2,1.3E2,9.738672E1,1.7028125E2,1.0925391E2,1.30375E2,2.0258887E3,2.0265245E3,5.31374E2,4.5343945E2,1.7715312E3,1.0482031E2,1.6362207E2,2.3948633E2,0E0,0E0,0E0,0E0,0E0,0E0,0E0,0E0,0E0,0E0,0E0,0E0,0E0,0E0,0E0,0E0,0E0,0E0,0E0,0E0,0E0,0E0,0E0,0E0,0E0,0E0,0E0,0E0,0E0,0E0,0E0,0E0,0E0,0E0,0E0,0E0,0E0,0E0,0E0,0E0,0E0,0E0,0E0,0E0,0E0,0E0,0E0,0E0,0E0,0E0,0E0,0E0,0E0,0E0,0E0,0E0,0E0,0E0,0E0,0E0,0E0,0E0,0E0,0E0],"parents":[2147483647,0,0,1,1,2,2,3,3,4,4,5,5,6,6,7,7,8,8,9,9,10,10,11,11,12,12,13,13,14,14,15,15,16,16,17,17,18,18,19,19,20,20,21,21,22,22,23,23,24,24,25,25,26,26,27,27,28,28,29,29,30,30,31,31,32,32,33,33,34,34,35,35,36,36,37,37,38,38,39,39,40,40,41,41,42,42,43,43,44,44,45,45,46,46,47,47,48,48,49,49,50,50,51,51,52,52,53,53,54,54,55,55,56,56,57,57,58,58,59,59,60,60,61,61,62,62],"right_children":[2,4,6,8,10,12,14,16,18,20,22,24,26,28,30,32,34,36,38,40,42,44,46,48,50,52,54,56,58,60,62,64,66,68,70,72,74,76,78,80,82,84,86,88,90,92,94,96,98,100,102,104,106,108,110,112,114,116,118,120,122,124,126,-1,-1,-1,-1,-1,-1,-1,-1,-1,-1,-1,-1,-1,-1,-1,-1,-1,-1,-1,-1,-1,-1,-1,-1,-1,-1,-1,-1,-1,-1,-1,-1,-1,-1,-1,-1,-1,-1,-1,-1,-1,-1,-1,-1,-1,-1,-1,-1,-1,-1,-1,-1,-1,-1,-1,-1,-1,-1,-1,-1,-1,-1,-1,-1],"split_conditions":[4.916E1,1.48E1,2E0,4.27E0,3E0,1.2564E2,1.4832E2,1.3E0,3E0,2E0,1.89E1,7.737E1,1.9249E2,3E0,2.0003E2,1.1E1,2E0,2E0,8.05E0,3.098E1,3.018E1,9.971E3,3.058E1,6.146E1,9.781E1,1.0791E2,2.819E2,8.751E1,3.701E1,3E0,3.3906E2,6.453E3,1E-2,3E0,3E0,2E0,2E0,2E0,1.209E3,2E0,2E0,2E0,2E0,1.197E1,1.4367E4,1.1445E4,1.1983E4,2E0,2E0,2E0,5.621E3,1.0202E4,1.5099E2,3.695E3,3.8509E2,1.167E3,2E0,1.1983E4,6.875E1,1.0431E2,1.1983E4,2E0,3.8509E2,-3.7322575E-1,-3.4897977E-1,2.6311187E-2,-3.3978766E-1,-3.7583867E-1,-3.1505388E-1,-3.1075636E-1,-2.4500726E-1,-2.0684804E-1,-1.04197174E-1,-3.463938E-1,-2.7661082E-1,-2.213231E-1,-1.755379E-1,-1.0299226E-1,-1.6886905E-1,-8.326122E-2,-2.2515422E-2,1.61841E-2,6.185539E-2,-2.8222442E-1,-2.1001905E-1,-1.9432372E-1,-1.3769525E-1,-6.376944E-2,-4.9855197E-3,-1.3272455E-1,-2.9864496E-1,3.4965597E-2,-1.591808E-1,1.00911796E-1,-1.3022688E-1,6.870776E-2,1.06516294E-1,1.0919976E-1,1.477478E-1,1.470909E-1,1.801119E-1,2.0197165E-1,1.505686E-1,2.1477245E-1,-1.615552E-2,2.3481327E-1,2.5874957E-1,2.910283E-1,2.5703812E-1,3.1031016E-1,3.3901078E-1,-6.306361E-2,-1.2414915E-1,-1.41345E-2,4.318519E-2,1.17129244E-1,-1.2904099E-1,1.7697603E-1,2.2826305E-1,5.189897E-2,1.22715876E-1,2.586222E-1,-1.0465938E-1,1.7633082E-1,2.1726906E-1,2.4854483E-1,3.1251654E-1],"split_indices":[1,1,3,1,3,1,1,1,3,3,2,1,2,3,2,0,4,3,1,1,1,5,1,1,1,2,1,1,2,3,1,5,2,3,3,4,4,4,0,4,4,4,4,2,5,5,5,4,4,4,5,5,1,5,2,0,4,5,2,2,5,4,2,0,0,0,0,0,0,0,0,0,0,0,0,0,0,0,0,0,0,0,0,0,0,0,0,0,0,0,0,0,0,0,0,0,0,0,0,0,0,0,0,0,0,0,0,0,0,0,0,0,0,0,0,0,0,0,0,0,0,0,0,0,0,0,0],"split_type":[0,0,0,0,0,0,0,0,0,0,0,0,0,0,0,0,0,0,0,0,0,0,0,0,0,0,0,0,0,0,0,0,0,0,0,0,0,0,0,0,0,0,0,0,0,0,0,0,0,0,0,0,0,0,0,0,0,0,0,0,0,0,0,0,0,0,0,0,0,0,0,0,0,0,0,0,0,0,0,0,0,0,0,0,0,0,0,0,0,0,0,0,0,0,0,0,0,0,0,0,0,0,0,0,0,0,0,0,0,0,0,0,0,0,0,0,0,0,0,0,0,0,0,0,0,0,0],"sum_hessian":[1.0345682E6,4.6168356E5,5.728846E5,1.6663336E5,2.950502E5,2.2855755E5,3.443271E5,5.1571258E4,1.150621E5,2.0296975E5,9.208045E4,1.0374219E5,1.2481536E5,2.3193933E5,1.1238777E5,2.3500562E4,2.8070697E4,5.1737867E4,6.3324234E4,6.5536875E4,1.3743288E5,4.2072715E4,5.0007734E4,4.4749246E4,5.899294E4,6.8523984E4,5.629138E4,1.8931966E5,4.2619676E4,8.3354555E4,2.9033219E4,1.7362432E4,6.1381304E3,9.190029E3,1.8880668E4,1.0902848E4,4.0835016E4,2.5252447E4,3.807179E4,3.0333836E4,3.5203043E4,7.052422E4,6.690866E4,4.011694E4,1.9557733E3,1.9565438E4,3.0442297E4,2.0676502E4,2.4072746E4,2.716406E4,3.1828883E4,1.412813E4,5.4395855E4,2.6588678E4,2.9702701E4,9.29362E4,9.6383445E4,1.0967507E4,3.1652168E4,7.867773E4,4.676828E3,1.7046826E4,1.1986392E4,1.1883193E4,5.479239E3,1.13658295E2,6.024472E3,2.8307266E3,6.3593027E3,7.779217E3,1.110145E4,3.6565266E3,7.2463213E3,1.6260662E4,2.4574355E4,1.0807538E4,1.444491E4,3.032834E4,7.7434487E3,1.419798E4,1.6135855E4,1.8163059E4,1.7039984E4,3.3893355E4,3.663086E4,3.2162168E4,3.474649E4,1.1192537E4,2.8924404E4,1.4611755E3,4.9459775E2,1.9151621E4,4.138166E2,3.010538E4,3.3691522E2,1.0827478E4,9.849024E3,1.2659864E4,1.1412882E4,1.4872525E4,1.2291534E4,2.97855E4,2.043383E3,1.40598955E4,6.823442E1,1.6744877E4,3.7650977E4,2.202721E4,4.561466E3,2.0559176E4,9.143524E3,6.2103086E4,3.0833121E4,5.6405812E4,3.9977633E4,1.0626062E4,3.414455E2,2.231322E4,9.338949E3,1.7144873E4,6.153285E4,4.647927E3,2.8901382E1,1.1412119E4,5.634708E3,8.950328E3,3.0360627E3],"tree_param":{"num_deleted":"0","num_feature":"7","num_nodes":"127","size_leaf_vector":"1"}},{"base_weights":[8.757433E-5,-5.535051E-1,5.2029973E-1,-9.632245E-1,-2.972699E-1,2.6294738E-1,9.234084E-1,-1.3203644E0,-7.9634184E-1,-4.6666798E-1,-1.4625548E-1,1.3733378E-1,4.4267192E-1,7.9616266E-1,1.204295E0,-1.4901485E0,-1.1539071E0,-7.616773E-1,-1.3260556E0,-4.3702367E-1,-1.0392587E0,-1.2305199E-1,-7.897635E-1,1.798639E-1,-1.0519532E-1,5.192897E-1,2.4346386E-1,8.8824207E-1,5.731859E-1,1.1305069E0,1.3500429E0,-1.5572697E0,-1.3778573E0,-1.3321061E0,-1.0592313E0,-1.1383622E0,-7.0632005E-1,-1.2203348E0,-1.6205127E0,-5.632607E-1,-2.975249E-1,-8.013444E-1,-1.2015996E0,-2.3546481E-1,6.0142756E-2,-5.8913296E-1,-1.2498094E0,9.817961E-2,2.9389662E-1,-6.320278E-2,-7.097054E-1,4.3547875E-1,6.742218E-1,1.1471772E-1,3.93453E-1,8.0030775E-1,9.9134046E-1,4.3131566E-1,7.279694E-1,1.1872108E0,9.374103E-1,1.3852196E0,1.2063732E0,-3.0896208E-1,-2.9002956E-1,-3.0579418E-1,-2.5572202E-1,-3.0228812E-1,-2.4635324E-1,-1.8726668E-1,-2.4160962E-1,-2.5108787E-1,-1.586855E-1,-1.5567559E-1,-1.1823555E-1,-1.6306324E-1,-2.5151283E-1,-3.175646E-1,-1.4517592E-1,-1.3796496E-1,-8.052096E-2,-1.4622764E-1,-4.959551E-2,-1.2691613E-1,-2.0764364E-1,-2.750287E-1,-1.8552357E-1,-7.424761E-2,-1.9090425E-2,7.3764413E-3,1.5066144E-1,-1.0805339E-1,-2.4662308E-1,-2.1543138E-1,-2.861729E-1,5.883399E-3,4.843807E-2,3.959631E-2,7.4603006E-2,-2.1612411E-2,3.548129E-2,-1.1517046E-1,-2.0213437E-1,6.906989E-2,1.1611702E-1,1.20486364E-1,1.625235E-1,9.821496E-4,4.4238165E-2,5.5144418E-2,1.0412632E-1,1.4424813E-1,1.8026069E-1,1.8474603E-1,2.1856776E-1,6.0109913E-2,1.2239623E-1,1.2446316E-1,1.7281988E-1,2.2558363E-1,2.5137246E-1,1.6620487E-1,2.146998E-1,2.5802135E-1,2.7903736E-1,2.0910323E-1,2.5303254E-1],"categories":[],"categories_nodes":[],"categories_segments":[],"categories_sizes":[],"default_left":[0,0,0,0,0,0,0,0,0,0,0,0,0,0,0,0,0,0,0,0,0,0,0,0,0,0,0,0,0,0,0,0,0,0,0,0,0,0,0,0,0,0,0,0,0,0,0,0,0,0,0,0,0,0,0,0,0,0,0,0,0,0,0,0,0,0,0,0,0,0,0,0,0,0,0,0,0,0,0,0,0,0,0,0,0,0,0,0,0,0,0,0,0,0,0,0,0,0,0,0,0,0,0,0,0,0,0,0,0,0,0,0,0,0,0,0,0,0,0,0,0,0,0,0,0,0,0],"id":1,"left_children":[1,3,5,7,9,11,13,15,17,19,21,23,25,27,29,31,33,35,37,39,41,43,45,47,49,51,53,55,57,59,61,63,65,67,69,71,73,75,77,79,81,83,85,87,89,91,93,95,97,99,101,103,105,107,109,111,113,115,117,119,121,123,125,-1,-1,-1,-1,-1,-1,-1,-1,-1,-1,-1,-1,-1,-1,-1,-1,-1,-1,-1,-1,-1,-1,-1,-1,-1,-1,-1,-1,-1,-1,-1,-1,-1,-1,-1,-1,-1,-1,-1,-1,-1,-1,-1,-1,-1,-1,-1,-1,-1,-1,-1,-1,-1,-1,-1,-1,-1,-1,-1,-1,-1,-1,-1,-1],"loss_changes":[2.9553744E5,5.219267E4,5.4884188E4,1.1397422E4,7.824174E3,7.2895312E3,7.365E3,1.7166172E3,2.3906953E3,2.4451074E3,2.4138635E3,1.9606694E3,2.0267617E3,2.911164E3,6.866875E2,2.2134375E2,5.148906E2,2.549E3,2.4364258E2,2.4128242E3,2.708379E2,3.2146174E3,5.167251E2,1.5060278E3,7.192064E2,1.244418E3,7.122251E2,9.07625E2,9.093662E2,4.6382812E2,1.04296875E2,3.0960938E1,1.3519727E2,1.522539E2,3.5250977E2,7.6166406E2,9.8278516E2,1.5705957E2,1.4556641E1,1.5629688E3,1.2646924E3,1.1186438E2,2.167002E2,1.9375049E3,9.4237537E2,8.867334E1,4.9101807E1,9.6386804E2,5.4448047E2,3.1077972E2,6.923743E1,8.079668E2,2.9803027E2,2.4474509E2,2.6457495E2,4.026875E2,2.553711E2,5.224785E2,2.7890918E2,9.447266E1,1.3140527E2,4.4375E1,4.8359863E1,0E0,0E0,0E0,0E0,0E0,0E0,0E0,0E0,0E0,0E0,0E0,0E0,0E0,0E0,0E0,0E0,0E0,0E0,0E0,0E0,0E0,0E0,0E0,0E0,0E0,0E0,0E0,0E0,0E0,0E0,0E0,0E0,0E0,0E0,0E0,0E0,0E0,0E0,0E0,0E0,0E0,0E0,0E0,0E0,0E0,0E0,0E0,0E0,0E0,0E0,0E0,0E0,0E0,0E0,0E0,0E0,0E0,0E0,0E0,0E0,0E0,0E0,0E0,0E0],"parents":[2147483647,0,0,1,1,2,2,3,3,4,4,5,5,6,6,7,7,8,8,9,9,10,10,11,11,12,12,13,13,14,14,15,15,16,16,17,17,18,18,19,19,20,20,21,21,22,22,23,23,24,24,25,25,26,26,27,27,28,28,29,29,30,30,31,31,32,32,33,33,34,34,35,35,36,36,37,37,38,38,39,39,40,40,41,41,42,42,43,43,44,44,45,45,46,46,47,47,48,48,49,49,50,50,51,51,52,52,53,53,54,54,55,55,56,56,57,57,58,58,59,59,60,60,61,61,62,62],"right_children":[2,4,6,8,10,12,14,16,18,20,22,24,26,28,30,32,34,36,38,40,42,44,46,48,50,52,54,56,58,60,62,64,66,68,70,72,74,76,78,80,82,84,86,88,90,92,94,96,98,100,102,104,106,108,110,112,114,116,118,120,122,124,126,-1,-1,-1,-1,-1,-1,-1,-1,-1,-1,-1,-1,-1,-1,-1,-1,-1,-1,-1,-1,-1,-1,-1,-1,-1,-1,-1,-1,-1,-1,-1,-1,-1,-1,-1,-1,-1,-1,-1,-1,-1,-1,-1,-1,-1,-1,-1,-1,-1,-1,-1,-1,-1,-1,-1,-1,-1,-1,-1,-1,-1,-1,-1,-1],"split_conditions":[4.369E1,1.736E1,1.2016E2,5.25E0,3.22E1,7.916E1,2.1843E2,2.2E0,1.0202E4,9.784E3,1.0202E4,7.025E3,5.39E3,4.8E3,3.1969E2,5.1E-1,2E0,1.991E3,1.4367E4,5.52E2,1.271E3,9.8E2,1.4367E4,2E0,1.1983E4,2E0,2E0,1.6E2,2.0451E2,4.742E3,4.183E3,6.711E3,2E0,2.462E3,4.23E2,2E0,1.15E1,3.48E2,1.583E1,2E0,1.155E1,1.1983E4,1.784E1,2E0,9.119E1,3E0,1.9365E4,8.629E1,5.839E1,1.1471E2,1.6253E4,1.3178E2,1.3392E2,1.3178E2,1.3837E2,2E0,2.4764E2,2E0,2E0,3.6943E2,2E0,3.8509E2,4.1444E2,-3.0896208E-1,-2.9002956E-1,-3.0579418E-1,-2.5572202E-1,-3.0228812E-1,-2.4635324E-1,-1.8726668E-1,-2.4160962E-1,-2.5108787E-1,-1.586855E-1,-1.5567559E-1,-1.1823555E-1,-1.6306324E-1,-2.5151283E-1,-3.175646E-1,-1.4517592E-1,-1.3796496E-1,-8.052096E-2,-1.4622764E-1,-4.959551E-2,-1.2691613E-1,-2.0764364E-1,-2.750287E-1,-1.8552357E-1,-7.424761E-2,-1.9090425E-2,7.3764413E-3,1.5066144E-1,-1.0805339E-1,-2.4662308E-1,-2.1543138E-1,-2.861729E-1,5.883399E-3,4.843807E-2,3.959631E-2,7.4603006E-2,-2.1612411E-2,3.548129E-2,-1.1517046E-1,-2.0213437E-1,6.906989E-2,1.1611702E-1,1.20486364E-1,1.625235E-1,9.821496E-4,4.4238165E-2,5.5144418E-2,1.0412632E-1,1.4424813E-1,1.8026069E-1,1.8474603E-1,2.1856776E-1,6.0109913E-2,1.2239623E-1,1.2446316E-1,1.7281988E-1,2.2558363E-1,2.5137246E-1,1.6620487E-1,2.146998E-1,2.5802135E-1,2.7903736E-1,2.0910323E-1,2.5303254E-1],"split_indices":[2,1,2,1,1,2,2,1,5,5,5,5,5,5,2,2,4,5,5,0,0,0,5,4,5,4,4,2,1,5,5,5,4,5,0,4,1,0,2,4,2,5,2,4,1,4,5,1,2,1,5,1,1,1,1,4,1,4,4,1,4,2,1,0,0,0,0,0,0,0,0,0,0,0,0,0,0,0,0,0,0,0,0,0,0,0,0,0,0,0,0,0,0,0,0,0,0,0,0,0,0,0,0,0,0,0,0,0,0,0,0,0,0,0,0,0,0,0,0,0,0,0,0,0,0,0,0],"split_type":[0,0,0,0,0,0,0,0,0,0,0,0,0,0,0,0,0,0,0,0,0,0,0,0,0,0,0,0,0,0,0,0,0,0,0,0,0,0,0,0,0,0,0,0,0,0,0,0,0,0,0,0,0,0,0,0,0,0,0,0,0,0,0,0,0,0,0,0,0,0,0,0,0,0,0,0,0,0,0,0,0,0,0,0,0,0,0,0,0,0,0,0,0,0,0,0,0,0,0,0,0,0,0,0,0,0,0,0,0,0,0,0,0,0,0,0,0,0,0,0,0,0,0,0,0,0,0],"sum_hessian":[1.0262192E6,4.9715822E5,5.2906094E5,1.9128555E5,3.058727E5,3.2291225E5,2.0614872E5,6.0912445E4,1.303731E5,1.4415764E5,1.6171505E5,1.90073E5,1.3283925E5,1.4188295E5,6.4265766E4,3.0145822E4,3.0766621E4,1.2237079E5,8.0023105E3,1.3706578E5,7.0918486E3,1.5609E5,5.6250503E3,1.6171752E5,2.8355486E4,9.593505E4,3.6904203E4,1.00409734E5,4.1473223E4,4.2678938E4,2.1586828E4,1.8849613E4,1.1296208E4,1.066409E4,2.0102531E4,1.5673225E4,1.0669757E5,5.896666E3,2.1056445E3,7.194757E4,6.5118223E4,2.8824365E3,4.209412E3,9.673468E4,5.935532E4,3.920745E3,1.7043052E3,9.422882E4,6.7488695E4,2.6516633E4,1.8388538E3,6.226434E4,3.3670707E4,1.9862643E4,1.7041562E4,5.4202176E4,4.620756E4,2.1645172E4,1.9828049E4,3.2981086E4,9.69785E3,1.7324787E4,4.262041E3,1.3180429E4,5.669185E3,2.8379297E3,8.458278E3,2.4851E3,8.1789897E3,1.3070742E4,7.031789E3,1.0685764E4,4.987461E3,5.5081113E4,5.1616453E4,9.273244E2,4.9693413E3,2.0795837E3,2.6060843E1,3.6545363E4,3.5402203E4,5.62438E3,5.949384E4,1.8469376E3,1.0354989E3,2.275264E3,1.9341483E3,4.694528E4,4.97894E4,5.756138E4,1.7939418E3,3.7355195E3,1.8522554E2,1.0383882E3,6.6591693E2,6.491928E4,2.930954E4,3.3478723E4,3.400997E4,2.2199375E4,4.3172583E3,1.3565673E3,4.822864E2,4.143146E4,2.0832877E4,2.5006629E4,8.664078E3,1.0058148E4,9.804493E3,9.571818E3,7.4697437E3,3.6718418E4,1.7483754E4,3.4837703E4,1.1369855E4,1.3346218E4,8.298954E3,1.2734598E4,7.093452E3,2.578461E4,7.1964785E3,6.434186E3,3.2636636E3,7.6493394E3,9.675447E3,1.7656525E3,2.4963887E3],"tree_param":{"num_deleted":"0","num_feature":"7","num_nodes":"127","size_leaf_vector":"1"}},{"base_weights":[-9.086652E-5,-4.5653605E-1,4.280855E-1,-7.6026875E-1,-2.1579184E-1,8.2354903E-1,1.6424751E-1,-1.015176E0,-5.124141E-1,-4.0779585E-1,2.8153956E-1,6.2790453E-1,1.0068372E0,7.774578E-2,7.728669E-1,-4.7815043E-1,-1.1686623E0,-9.542475E-1,-2.8705353E-1,1.3985278E-1,-6.9663465E-1,8.1200294E-2,3.7128347E-1,4.939934E-1,7.2863233E-1,9.132115E-1,1.1102247E0,-1.8400915E-1,3.861134E-1,6.866087E-1,9.4865036E-1,-1.2909802E0,-3.563783E-1,-1.0803297E0,-1.2907414E0,-1.2326344E0,-8.182757E-1,-4.675801E-1,-1.3508552E-1,2.239746E-2,2.908865E-1,-6.320765E-1,-9.8460084E-1,1.6074044E-1,-2.1779384E-1,3.8705704E-1,-5.395443E-1,4.3116614E-1,5.64283E-1,6.542618E-1,7.6724905E-1,9.253702E-1,6.6167754E-1,1.049096E0,1.1781214E0,-2.8502142E-1,-1.414414E-2,2.70119E-1,7.1048874E-1,6.9478446E-1,-1.0599663E0,9.563424E-1,-3.5786396E-1,-2.6666412E-1,-1.9529171E-1,-1.06527E-1,-4.784777E-2,-2.5280124E-1,-1.859269E-1,-2.6494744E-1,-2.382381E-1,-2.7706948E-1,-2.1494268E-1,-1.8591455E-1,-1.4222085E-1,-7.728712E-2,-1.3741896E-1,-1.4427955E-2,-7.7895954E-2,-2.523254E-2,1.6315823E-2,5.736004E-2,-2.3669574E-1,-1.4298405E-1,-8.992363E-2,-2.3247229E-1,-1.6301066E-1,-7.60055E-2,3.490597E-2,-3.7067816E-2,-2.3276655E-1,8.707138E-2,4.8936658E-2,-6.989203E-2,-2.186987E-1,-8.85074E-3,9.005074E-2,1.1593898E-1,7.321372E-2,9.374968E-2,1.3016525E-1,1.5004429E-1,-4.238095E-2,1.7317808E-1,1.894774E-1,1.3372476E-1,-1.2775171E-1,2.0461023E-1,-1.9562437E-1,2.298974E-1,-8.1070885E-2,-3.897813E-2,-9.944831E-2,2.5071807E-2,-2.8918225E-2,3.6821168E-2,8.224922E-2,1.1927924E-1,1.742415E-1,1.4546607E-1,1.0080524E-1,-1.0877916E-1,-3.0866858E-1,1.7946362E-1,2.1032736E-1,1.533345E-2,-1.7663947E-1],"categories":[],"categories_nodes":[],"categories_segments":[],"categories_sizes":[],"default_left":[0,0,0,0,0,0,0,0,0,0,0,0,0,0,0,0,0,0,0,0,0,0,0,0,0,0,0,0,0,0,0,0,0,0,0,0,0,0,0,0,0,0,0,0,0,0,0,0,0,0,0,0,0,0,0,0,0,0,0,0,0,0,0,0,0,0,0,0,0,0,0,0,0,0,0,0,0,0,0,0,0,0,0,0,0,0,0,0,0,0,0,0,0,0,0,0,0,0,0,0,0,0,0,0,0,0,0,0,0,0,0,0,0,0,0,0,0,0,0,0,0,0,0,0,0,0,0],"id":2,"left_children":[1,3,5,7,9,11,13,15,17,19,21,23,25,27,29,31,33,35,37,39,41,43,45,47,49,51,53,55,57,59,61,63,65,67,69,71,73,75,77,79,81,83,85,87,89,91,93,95,97,99,101,103,105,107,109,111,113,115,117,119,121,123,125,-1,-1,-1,-1,-1,-1,-1,-1,-1,-1,-1,-1,-1,-1,-1,-1,-1,-1,-1,-1,-1,-1,-1,-1,-1,-1,-1,-1,-1,-1,-1,-1,-1,-1,-1,-1,-1,-1,-1,-1,-1,-1,-1,-1,-1,-1,-1,-1,-1,-1,-1,-1,-1,-1,-1,-1,-1,-1,-1,-1,-1,-1,-1,-1],"loss_changes":[1.9768889E5,3.57991E4,5.4454977E4,1.3674914E4,2.6080502E4,7.4872188E3,1.6480855E4,8.794023E3,1.0927742E4,3.11702E4,1.3673647E3,1.3612383E3,1.0405078E3,2.2125205E4,5.883574E2,2.3462803E3,8.907969E2,1.4000469E3,1.9936582E3,1.2067983E3,2.396086E3,5.598463E2,7.550332E2,1.9041992E2,1.6366406E2,1.70875E2,2.0885547E2,2.5436567E3,4.734129E3,3.7432227E2,1.2983398E2,6.550342E1,4.3458716E2,1.3140547E3,1.5891797E2,2.9346484E2,2.9654688E2,5.5811914E2,6.374013E2,3.5697974E2,1.6229077E2,1.8310625E3,7.2563477E2,1.8931836E2,1.3137766E2,4.2007666E2,9.24783E1,3.4101074E2,1.1836377E2,4.653418E1,1.17771484E2,8.994141E1,8.677698E1,8.21543E1,8.869141E1,1.7797017E3,1.0612181E3,1.1430669E3,5.964629E2,2.3862207E2,2.902478E1,5.1765625E1,1.8881268E1,0E0,0E0,0E0,0E0,0E0,0E0,0E0,0E0,0E0,0E0,0E0,0E0,0E0,0E0,0E0,0E0,0E0,0E0,0E0,0E0,0E0,0E0,0E0,0E0,0E0,0E0,0E0,0E0,0E0,0E0,0E0,0E0,0E0,0E0,0E0,0E0,0E0,0E0,0E0,0E0,0E0,0E0,0E0,0E0,0E0,0E0,0E0,0E0,0E0,0E0,0E0,0E0,0E0,0E0,0E0,0E0,0E0,0E0,0E0,0E0,0E0,0E0,0E0,0E0],"parents":[2147483647,0,0,1,1,2,2,3,3,4,4,5,5,6,6,7,7,8,8,9,9,10,10,11,11,12,12,13,13,14,14,15,15,16,16,17,17,18,18,19,19,20,20,21,21,22,22,23,23,24,24,25,25,26,26,27,27,28,28,29,29,30,30,31,31,32,32,33,33,34,34,35,35,36,36,37,37,38,38,39,39,40,40,41,41,42,42,43,43,44,44,45,45,46,46,47,47,48,48,49,49,50,50,51,51,52,52,53,53,54,54,55,55,56,56,57,57,58,58,59,59,60,60,61,61,62,62],"right_children":[2,4,6,8,10,12,14,16,18,20,22,24,26,28,30,32,34,36,38,40,42,44,46,48,50,52,54,56,58,60,62,64,66,68,70,72,74,76,78,80,82,84,86,88,90,92,94,96,98,100,102,104,106,108,110,112,114,116,118,120,122,124,126,-1,-1,-1,-1,-1,-1,-1,-1,-1,-1,-1,-1,-1,-1,-1,-1,-1,-1,-1,-1,-1,-1,-1,-1,-1,-1,-1,-1,-1,-1,-1,-1,-1,-1,-1,-1,-1,-1,-1,-1,-1,-1,-1,-1,-1,-1,-1,-1,-1,-1,-1,-1,-1,-1,-1,-1,-1,-1,-1,-1,-1,-1,-1,-1],"split_conditions":[5.602E1,2.032E1,2E0,3E0,3E0,1.3611E2,3E0,2E0,6.24E0,2E0,2.717E1,8.512E1,2.2332E2,1.3178E2,1.0062E2,2.73E0,4.05E2,2.2E0,1.177E1,3.957E1,1.098E3,2.028E3,1.1983E4,2E0,1.0062E2,5.703E3,3.1591E2,9.781E1,2.5765E2,1.4367E4,1.1983E4,2.8E1,2E0,5.25E0,2E0,5.4E-1,2E0,9.64E2,1.606E3,2.611E1,3E0,4.001E1,2E0,1.676E3,1.3209E4,1.97E3,1.6253E4,3.98E2,2.187E3,9.71E2,3E0,1.7697E2,1.3209E4,1.2532E4,1.0707E4,1.497E3,1.462E3,2E0,3.6943E2,2.731E3,6.846E1,1.8086E2,1.3209E4,-2.6666412E-1,-1.9529171E-1,-1.06527E-1,-4.784777E-2,-2.5280124E-1,-1.859269E-1,-2.6494744E-1,-2.382381E-1,-2.7706948E-1,-2.1494268E-1,-1.8591455E-1,-1.4222085E-1,-7.728712E-2,-1.3741896E-1,-1.4427955E-2,-7.7895954E-2,-2.523254E-2,1.6315823E-2,5.736004E-2,-2.3669574E-1,-1.4298405E-1,-8.992363E-2,-2.3247229E-1,-1.6301066E-1,-7.60055E-2,3.490597E-2,-3.7067816E-2,-2.3276655E-1,8.707138E-2,4.8936658E-2,-6.989203E-2,-2.186987E-1,-8.85074E-3,9.005074E-2,1.1593898E-1,7.321372E-2,9.374968E-2,1.3016525E-1,1.5004429E-1,-4.238095E-2,1.7317808E-1,1.894774E-1,1.3372476E-1,-1.2775171E-1,2.0461023E-1,-1.9562437E-1,2.298974E-1,-8.1070885E-2,-3.897813E-2,-9.944831E-2,2.5071807E-2,-2.8918225E-2,3.6821168E-2,8.224922E-2,1.1927924E-1,1.742415E-1,1.4546607E-1,1.0080524E-1,-1.0877916E-1,-3.0866858E-1,1.7946362E-1,2.1032736E-1,1.533345E-2,-1.7663947E-1],"split_indices":[1,1,3,3,3,1,3,3,1,3,1,1,1,1,1,1,0,1,1,1,0,0,5,4,1,5,1,1,1,5,5,0,4,1,4,1,4,0,0,1,4,1,4,5,5,0,5,0,0,5,4,1,5,5,5,0,0,4,1,0,1,1,5,0,0,0,0,0,0,0,0,0,0,0,0,0,0,0,0,0,0,0,0,0,0,0,0,0,0,0,0,0,0,0,0,0,0,0,0,0,0,0,0,0,0,0,0,0,0,0,0,0,0,0,0,0,0,0,0,0,0,0,0,0,0,0,0],"split_type":[0,0,0,0,0,0,0,0,0,0,0,0,0,0,0,0,0,0,0,0,0,0,0,0,0,0,0,0,0,0,0,0,0,0,0,0,0,0,0,0,0,0,0,0,0,0,0,0,0,0,0,0,0,0,0,0,0,0,0,0,0,0,0,0,0,0,0,0,0,0,0,0,0,0,0,0,0,0,0,0,0,0,0,0,0,0,0,0,0,0,0,0,0,0,0,0,0,0,0,0,0,0,0,0,0,0,0,0,0,0,0,0,0,0,0,0,0,0,0,0,0,0,0,0,0,0,0],"sum_hessian":[1.0115082E6,4.8959306E5,5.2191512E5,2.1647395E5,2.7311912E5,2.0885638E5,3.1305875E5,1.06714516E5,1.0975944E5,1.9704717E5,7.607194E4,1.0102863E5,1.0782774E5,2.741041E5,3.8954645E4,2.3723045E4,8.299147E4,3.707085E4,7.2688586E4,6.8039766E4,1.29007414E5,2.3538139E4,5.25338E4,4.337797E4,5.7650664E4,5.6597934E4,5.122981E4,1.482564E5,1.25847695E5,2.614019E4,1.2814458E4,3.0879814E3,2.0635064E4,4.8164375E4,3.4827098E4,1.2158408E4,2.4912443E4,3.3218766E4,3.946982E4,3.827839E4,2.9761371E4,1.0538879E5,2.3618621E4,1.8594705E4,4.9434326E3,5.1641285E4,8.925122E2,2.2916889E4,2.0461082E4,1.9720988E4,3.792967E4,5.398101E4,2.6169224E3,2.697935E4,2.425046E4,9.2967E4,5.528941E4,9.270313E4,3.3144562E4,2.601986E4,1.2033012E2,1.2740474E4,7.3983925E1,2.422102E3,6.658795E2,7.577711E3,1.3057354E4,1.7626113E4,3.053826E4,1.7130346E4,1.7696752E4,4.9091104E3,7.249298E3,9.768996E3,1.5143446E4,2.5611371E4,7.607394E3,3.2084572E4,7.385247E3,1.1008822E4,2.726957E4,2.9691875E4,6.949614E1,6.590244E4,3.948635E4,9.770538E3,1.3848083E4,6.0100555E2,1.79937E4,4.811022E3,1.324109E2,3.5809977E4,1.583131E4,6.845424E2,2.0796977E2,1.4060276E3,2.1510861E4,1.7563924E4,2.8971582E3,1.4909705E3,1.8230018E4,3.7810473E4,1.19201454E2,3.06527E4,2.3328312E4,2.56972E3,4.7202396E1,2.6961535E4,1.7813786E1,2.4217086E4,3.337389E1,6.755186E4,2.5415143E4,2.6790523E4,2.8498889E4,6.0489293E4,3.221384E4,2.1634166E4,1.1510397E4,2.0101295E4,5.9185635E3,6.4092285E1,5.623783E1,9.949914E3,2.79056E3,4.1312244E1,3.2671677E1],"tree_param":{"num_deleted":"0","num_feature":"7","num_nodes":"127","size_leaf_vector":"1"}},{"base_weights":[7.9705793E-4,-4.510429E-1,2.9840448E-1,-8.998225E-1,-3.421249E-1,6.4331996E-1,8.783043E-2,-1.142172E0,-7.6169866E-1,-5.39215E-1,-2.4976317E-2,3.875626E-1,8.031172E-1,1.4393601E-3,5.665084E-1,-1.2429988E0,-1.036749E0,-1.0001005E0,-6.1927354E-1,-4.963723E-2,-7.5923246E-1,-1.9965905E-1,2.1296228E-1,2.7316114E-1,4.7414988E-1,7.025731E-1,9.5217E-1,-2.5168505E-1,2.6843256E-1,4.317829E-1,7.2136456E-1,-1.2864475E0,-1.1503714E0,2.709032E-1,-1.0495948E0,-5.545018E-1,-1.0934377E0,-7.439242E-1,-5.3557134E-1,-1.9018073E-1,7.452779E-2,-6.7702407E-1,-1.0129539E0,-3.273721E-1,-1.0047617E-1,5.6955718E-2,2.7123532E-1,4.003323E-2,2.9302958E-1,4.3018523E-1,5.343528E-1,6.3662344E-1,7.5515765E-1,8.774756E-1,1.0221318E0,-3.643512E-1,-1.3570535E-1,1.5605326E-1,5.642201E-1,1.5648314E-1,4.964198E-1,5.5669755E-1,7.7629113E-1,-2.5067732E-1,-1.16811305E-1,-2.1080674E-1,-2.5829902E-1,2.2584602E-1,-1.9950278E-1,-2.3455654E-1,-1.8916306E-1,-1.8259913E-1,-9.1219194E-2,-1.5729314E-1,-2.3215006E-1,-2.2260776E-1,-1.3410228E-1,-9.092805E-2,-1.502161E-1,-6.364415E-2,-1.7340265E-2,-9.6629077E-4,3.049135E-2,-1.5897004E-1,-1.08095326E-1,-2.1935277E-1,-1.543484E-1,-5.4032568E-2,-1.0611265E-1,-4.4092946E-2,1.5760564E-3,2.3004068E-2,-4.3543044E-2,6.4887315E-2,3.2039896E-2,-6.278456E-2,3.254343E-2,6.155205E-2,2.367926E-2,7.4141674E-2,9.4876304E-2,1.0933881E-1,8.8169515E-2,1.2450746E-1,-1.304091E-1,1.303829E-1,1.5302528E-1,1.7297602E-1,1.4002514E-1,1.9220586E-1,2.1816306E-1,-4.592992E-2,-9.119316E-2,-5.7253556E-4,-5.37392E-2,5.32074E-2,1.3658098E-2,8.369397E-2,1.4002538E-1,3.681712E-2,-7.84528E-2,9.789157E-2,-1.9803439E-1,1.2211934E-1,8.98669E-2,1.5246603E-1,-6.281826E-2],"categories":[],"categories_nodes":[],"categories_segments":[],"categories_sizes":[],"default_left":[0,0,0,0,0,0,0,0,0,0,0,0,0,0,0,0,0,0,0,0,0,0,0,0,0,0,0,0,0,0,0,0,0,0,0,0,0,0,0,0,0,0,0,0,0,0,0,0,0,0,0,0,0,0,0,0,0,0,0,0,0,0,0,0,0,0,0,0,0,0,0,0,0,0,0,0,0,0,0,0,0,0,0,0,0,0,0,0,0,0,0,0,0,0,0,0,0,0,0,0,0,0,0,0,0,0,0,0,0,0,0,0,0,0,0,0,0,0,0,0,0,0,0,0,0,0,0],"id":3,"left_children":[1,3,5,7,9,11,13,15,17,19,21,23,25,27,29,31,33,35,37,39,41,43,45,47,49,51,53,55,57,59,61,63,65,67,69,71,73,75,77,79,81,83,85,87,89,91,93,95,97,99,101,103,105,107,109,111,113,115,117,119,121,123,125,-1,-1,-1,-1,-1,-1,-1,-1,-1,-1,-1,-1,-1,-1,-1,-1,-1,-1,-1,-1,-1,-1,-1,-1,-1,-1,-1,-1,-1,-1,-1,-1,-1,-1,-1,-1,-1,-1,-1,-1,-1,-1,-1,-1,-1,-1,-1,-1,-1,-1,-1,-1,-1,-1,-1,-1,-1,-1,-1,-1,-1,-1,-1,-1],"loss_changes":[1.331725E5,1.922154E4,4.3365258E4,2.567996E3,1.9780906E4,9.248852E3,1.5331055E4,2.9239844E2,1.6590605E3,2.1022676E4,5.041507E3,8.614336E2,2.085211E3,2.122533E4,1.1811328E3,5.2935547E1,2.3021484E2,7.5859766E2,3.1801562E2,1.0561962E3,2.8062656E3,8.856477E2,4.6654565E2,1.7345874E2,1.3001172E2,2.8666406E2,2.902461E2,2.1061904E3,5.0800107E3,5.3886475E2,2.3673438E2,1.4150391E0,5.0358887E1,1.5589603E2,1.6015137E2,1.0291681E2,4.2266016E2,2.6915283E2,2.954619E2,3.918938E2,2.096057E2,1.7256797E3,8.199453E2,3.311914E2,5.384513E2,2.396295E2,2.4658423E2,1.3582648E2,1.3589551E2,7.981445E1,4.494043E1,1.2825293E2,1.1912891E2,4.354492E1,9.663086E1,1.0909844E3,1.4787263E3,1.114596E3,8.743506E2,1.0500549E2,2.3053809E2,4.294751E1,1.4249121E2,0E0,0E0,0E0,0E0,0E0,0E0,0E0,0E0,0E0,0E0,0E0,0E0,0E0,0E0,0E0,0E0,0E0,0E0,0E0,0E0,0E0,0E0,0E0,0E0,0E0,0E0,0E0,0E0,0E0,0E0,0E0,0E0,0E0,0E0,0E0,0E0,0E0,0E0,0E0,0E0,0E0,0E0,0E0,0E0,0E0,0E0,0E0,0E0,0E0,0E0,0E0,0E0,0E0,0E0,0E0,0E0,0E0,0E0,0E0,0E0,0E0,0E0,0E0,0E0],"parents":[2147483647,0,0,1,1,2,2,3,3,4,4,5,5,6,6,7,7,8,8,9,9,10,10,11,11,12,12,13,13,14,14,15,15,16,16,17,17,18,18,19,19,20,20,21,21,22,22,23,23,24,24,25,25,26,26,27,27,28,28,29,29,30,30,31,31,32,32,33,33,34,34,35,35,36,36,37,37,38,38,39,39,40,40,41,41,42,42,43,43,44,44,45,45,46,46,47,47,48,48,49,49,50,50,51,51,52,52,53,53,54,54,55,55,56,56,57,57,58,58,59,59,60,60,61,61,62,62],"right_children":[2,4,6,8,10,12,14,16,18,20,22,24,26,28,30,32,34,36,38,40,42,44,46,48,50,52,54,56,58,60,62,64,66,68,70,72,74,76,78,80,82,84,86,88,90,92,94,96,98,100,102,104,106,108,110,112,114,116,118,120,122,124,126,-1,-1,-1,-1,-1,-1,-1,-1,-1,-1,-1,-1,-1,-1,-1,-1,-1,-1,-1,-1,-1,-1,-1,-1,-1,-1,-1,-1,-1,-1,-1,-1,-1,-1,-1,-1,-1,-1,-1,-1,-1,-1,-1,-1,-1,-1,-1,-1,-1,-1,-1,-1,-1,-1,-1,-1,-1,-1,-1,-1,-1,-1,-1,-1],"split_conditions":[4.21E1,7.53E0,2E0,2.47E0,3E0,1.0062E2,3E0,1.1E1,3E0,2E0,1.632E1,6.397E1,1.7981E2,1.1295E2,4.978E1,6.453E3,1E-2,2E0,2E0,2.611E1,8.64E2,1.288E1,2.375E1,8.65E2,8.396E1,1.3611E2,2.4401E2,7.23E1,1.6914E2,2.693E1,6.663E1,2.2E0,3E0,9E-2,3E0,2E0,1.06E2,2.309E3,8.34E2,2E0,2E0,2E0,1.974E1,1.188E3,2E0,2.123E3,1.606E3,3.63E2,1.939E3,2E0,1.97E3,1.1445E4,1.1373E2,5.043E3,3.8509E2,7.05E2,1.188E3,1.56E3,2.819E2,1.1445E4,1.4367E4,1.939E3,1.1445E4,-2.5067732E-1,-1.16811305E-1,-2.1080674E-1,-2.5829902E-1,2.2584602E-1,-1.9950278E-1,-2.3455654E-1,-1.8916306E-1,-1.8259913E-1,-9.1219194E-2,-1.5729314E-1,-2.3215006E-1,-2.2260776E-1,-1.3410228E-1,-9.092805E-2,-1.502161E-1,-6.364415E-2,-1.7340265E-2,-9.6629077E-4,3.049135E-2,-1.5897004E-1,-1.08095326E-1,-2.1935277E-1,-1.543484E-1,-5.4032568E-2,-1.0611265E-1,-4.4092946E-2,1.5760564E-3,2.3004068E-2,-4.3543044E-2,6.4887315E-2,3.2039896E-2,-6.278456E-2,3.254343E-2,6.155205E-2,2.367926E-2,7.4141674E-2,9.4876304E-2,1.0933881E-1,8.8169515E-2,1.2450746E-1,-1.304091E-1,1.303829E-1,1.5302528E-1,1.7297602E-1,1.4002514E-1,1.9220586E-1,2.1816306E-1,-4.592992E-2,-9.119316E-2,-5.7253556E-4,-5.37392E-2,5.32074E-2,1.3658098E-2,8.369397E-2,1.4002538E-1,3.681712E-2,-7.84528E-2,9.789157E-2,-1.9803439E-1,1.2211934E-1,8.98669E-2,1.5246603E-1,-6.281826E-2],"split_indices":[1,1,3,1,3,1,3,0,3,3,2,1,2,1,2,5,2,3,4,1,0,1,1,5,1,1,2,1,2,2,1,1,3,1,3,4,0,5,0,4,4,4,2,0,4,0,0,0,0,4,0,5,2,5,2,0,0,0,1,5,5,0,5,0,0,0,0,0,0,0,0,0,0,0,0,0,0,0,0,0,0,0,0,0,0,0,0,0,0,0,0,0,0,0,0,0,0,0,0,0,0,0,0,0,0,0,0,0,0,0,0,0,0,0,0,0,0,0,0,0,0,0,0,0,0,0,0],"split_type":[0,0,0,0,0,0,0,0,0,0,0,0,0,0,0,0,0,0,0,0,0,0,0,0,0,0,0,0,0,0,0,0,0,0,0,0,0,0,0,0,0,0,0,0,0,0,0,0,0,0,0,0,0,0,0,0,0,0,0,0,0,0,0,0,0,0,0,0,0,0,0,0,0,0,0,0,0,0,0,0,0,0,0,0,0,0,0,0,0,0,0,0,0,0,0,0,0,0,0,0,0,0,0,0,0,0,0,0,0,0,0,0,0,0,0,0,0,0,0,0,0,0,0,0,0,0,0],"sum_hessian":[9.903415E5,3.9326575E5,5.9707575E5,7.680077E4,3.1646497E5,2.2633581E5,3.7073994E5,2.7874582E4,4.8926195E4,1.951726E5,1.212924E5,8.703916E4,1.3929666E5,3.140618E5,5.6678125E4,1.4234692E4,1.3639891E4,1.829201E4,3.0634184E4,6.0516984E4,1.3465561E5,6.994533E4,5.1347062E4,3.75038E4,4.953536E4,8.319322E4,5.610343E4,1.6121675E5,1.5284506E5,3.031514E4,2.6362984E4,9.668904E3,4.565788E3,1.3179724E2,1.3508093E4,3.1714055E3,1.51206045E4,1.2297728E4,1.8336457E4,2.8388594E4,3.2128389E4,1.0170984E5,3.294576E4,3.05702E4,3.9375133E4,1.396809E4,3.7378973E4,2.9485498E3,3.455525E4,2.8643822E4,2.0891537E4,3.692277E4,4.6270453E4,2.7150459E4,2.8952973E4,8.177147E4,7.944527E4,1.1076642E5,4.207864E4,5.7675137E3,2.4547627E4,6.6023086E3,1.9760676E4,9.657556E3,1.1348761E1,3.3043337E3,1.2614541E3,7.860733E1,5.318991E1,4.530099E3,8.977994E3,5.775958E2,2.5938098E3,3.8814167E3,1.12391875E4,1.4932904E3,1.08044375E4,1.4203841E4,4.1326157E3,1.207349E4,1.63151045E4,1.6312865E4,1.5815523E4,4.7505715E4,5.420413E4,2.175629E4,1.1189472E4,2.4865775E4,5.704423E3,1.8233447E4,2.1141684E4,1.1470946E4,2.4971443E3,2.3648605E4,1.3730368E4,7.6323627E2,2.1853135E3,3.0462738E4,4.0925115E3,1.5335555E4,1.3308267E4,1.5681058E4,5.2104795E3,3.6849625E4,7.314319E1,1.2168418E4,3.4102035E4,2.5429898E4,1.7205598E3,2.1309246E4,7.643727E3,3.655271E4,4.521876E4,4.080971E4,3.8635562E4,4.68669E4,6.3899527E4,2.2516098E4,1.9562543E4,5.452637E3,3.1487662E2,2.4449232E4,9.83948E1,3.7891067E3,2.813202E3,1.9645164E4,1.1551073E2],"tree_param":{"num_deleted":"0","num_feature":"7","num_nodes":"127","size_leaf_vector":"1"}},{"base_weights":[-1.2084292E-3,-3.7271327E-1,2.502037E-1,-7.058264E-1,-2.528413E-1,5.196866E-1,7.6788336E-2,-1.0026367E0,-5.8708256E-1,-4.342931E-1,4.408887E-2,2.6806974E-1,6.7019886E-1,8.731265E-3,4.9914938E-1,-1.130617E0,-8.938687E-1,-8.350724E-1,-4.3173355E-1,-1.6535332E-2,-5.9519625E-1,-9.531824E-2,1.8456773E-1,1.230383E-1,3.3360282E-1,5.778507E-1,8.2887197E-1,-1.6971977E-1,2.63764E-1,4.1463766E-1,6.5131164E-1,-1.1738516E0,-1.048349E0,-7.494331E-1,-9.860243E-1,-4.0672886E-1,-9.472118E-1,-5.776554E-1,-3.4485728E-1,-1.3832495E-1,1.09043494E-1,-7.591497E-1,-4.620344E-1,-7.5867444E-2,-7.344886E-1,1.9639859E-1,-3.573717E-1,5.6604274E-2,2.1895987E-1,2.4071866E-1,3.6532438E-1,5.224354E-1,6.443013E-1,7.7529E-1,9.3426293E-1,-2.6838392E-1,-5.6136902E-2,9.7991325E-2,4.0328926E-1,4.5705953E-1,2.560525E-1,6.590854E-1,-8.8571265E-2,-2.3012401E-1,-6.5486774E-2,-1.8789303E-1,-2.3676886E-1,-1.7679937E-1,-1.2371364E-1,-2.2955345E-1,-1.750467E-1,-1.4589705E-1,-5.6856643E-2,-2.2604169E-1,-1.6252199E-1,-2.1118875E-1,-1.0648582E-1,-1.2374004E-1,-5.9227746E-2,-6.752728E-2,-1.5846465E-2,1.7157964E-2,1.7319219E-1,-1.801948E-1,-1.2122499E-1,-5.980438E-2,-1.0951006E-1,-6.852788E-2,-6.4690765E-3,-1.1067779E-1,-2.4757513E-1,1.6710807E-2,4.7577254E-2,-3.3322085E-2,-1.4808173E-1,-4.24892E-2,2.0575225E-2,4.500974E-2,-8.9538254E-2,2.7094765E-2,7.261663E-2,6.373326E-2,8.379029E-2,9.38333E-2,1.1295125E-1,1.2593442E-1,-9.5643386E-2,1.6023152E-1,1.4157814E-1,1.8456022E-1,1.2792207E-1,-6.839305E-2,-2.1670291E-2,-3.547256E-2,8.259611E-3,4.8092976E-3,4.598655E-2,6.2774844E-2,1.1683871E-1,7.990911E-2,1.075553E-1,6.0291406E-2,4.341191E-3,1.1699243E-1,1.448488E-1,-6.393968E-2,6.174866E-2],"categories":[],"categories_nodes":[],"categories_segments":[],"categories_sizes":[],"default_left":[0,0,0,0,0,0,0,0,0,0,0,0,0,0,0,0,0,0,0,0,0,0,0,0,0,0,0,0,0,0,0,0,0,0,0,0,0,0,0,0,0,0,0,0,0,0,0,0,0,0,0,0,0,0,0,0,0,0,0,0,0,0,0,0,0,0,0,0,0,0,0,0,0,0,0,0,0,0,0,0,0,0,0,0,0,0,0,0,0,0,0,0,0,0,0,0,0,0,0,0,0,0,0,0,0,0,0,0,0,0,0,0,0,0,0,0,0,0,0,0,0,0,0,0,0,0,0],"id":4,"left_children":[1,3,5,7,9,11,13,15,17,19,21,23,25,27,29,31,33,35,37,39,41,43,45,47,49,51,53,55,57,59,61,63,65,67,69,71,73,75,77,79,81,83,85,87,89,91,93,95,97,99,101,103,105,107,109,111,113,115,117,119,121,123,125,-1,-1,-1,-1,-1,-1,-1,-1,-1,-1,-1,-1,-1,-1,-1,-1,-1,-1,-1,-1,-1,-1,-1,-1,-1,-1,-1,-1,-1,-1,-1,-1,-1,-1,-1,-1,-1,-1,-1,-1,-1,-1,-1,-1,-1,-1,-1,-1,-1,-1,-1,-1,-1,-1,-1,-1,-1,-1,-1,-1,-1,-1,-1,-1],"loss_changes":[9.025413E4,1.5572367E4,2.6931473E4,3.6351758E3,1.5452977E4,8.54457E3,1.0079109E4,4.0721094E2,2.8384922E3,1.1965855E4,2.1305408E3,8.023506E2,2.0669766E3,1.374431E4,6.245E2,4.438086E1,2.0976172E2,1.3620312E3,5.736543E2,7.5716846E2,2.8043633E3,6.781222E2,3.474391E2,1.6732843E2,1.7080176E2,3.2722852E2,2.9076562E2,1.9908564E3,2.8751357E3,2.0979688E2,1.0042041E2,5.52334E1,6.1929688E1,1.1043286E2,1.6015723E2,2.30555E2,5.381406E2,2.6268994E2,3.354834E2,2.9799722E2,3.9745798E2,1.305457E3,1.100791E3,6.234696E2,1.4112793E2,2.8056238E2,8.594049E1,2.093463E2,8.859851E1,1.9848016E2,1.0636182E2,1.1255762E2,1.0628516E2,7.680469E1,6.2478516E1,1.2360894E3,1.0256497E3,5.750777E2,1.0737168E3,1.0878369E2,8.244531E1,8.319824E1,1.7806297E1,0E0,0E0,0E0,0E0,0E0,0E0,0E0,0E0,0E0,0E0,0E0,0E0,0E0,0E0,0E0,0E0,0E0,0E0,0E0,0E0,0E0,0E0,0E0,0E0,0E0,0E0,0E0,0E0,0E0,0E0,0E0,0E0,0E0,0E0,0E0,0E0,0E0,0E0,0E0,0E0,0E0,0E0,0E0,0E0,0E0,0E0,0E0,0E0,0E0,0E0,0E0,0E0,0E0,0E0,0E0,0E0,0E0,0E0,0E0,0E0,0E0,0E0,0E0,0E0],"parents":[2147483647,0,0,1,1,2,2,3,3,4,4,5,5,6,6,7,7,8,8,9,9,10,10,11,11,12,12,13,13,14,14,15,15,16,16,17,17,18,18,19,19,20,20,21,21,22,22,23,23,24,24,25,25,26,26,27,27,28,28,29,29,30,30,31,31,32,32,33,33,34,34,35,35,36,36,37,37,38,38,39,39,40,40,41,41,42,42,43,43,44,44,45,45,46,46,47,47,48,48,49,49,50,50,51,51,52,52,53,53,54,54,55,55,56,56,57,57,58,58,59,59,60,60,61,61,62,62],"right_children":[2,4,6,8,10,12,14,16,18,20,22,24,26,28,30,32,34,36,38,40,42,44,46,48,50,52,54,56,58,60,62,64,66,68,70,72,74,76,78,80,82,84,86,88,90,92,94,96,98,100,102,104,106,108,110,112,114,116,118,120,122,124,126,-1,-1,-1,-1,-1,-1,-1,-1,-1,-1,-1,-1,-1,-1,-1,-1,-1,-1,-1,-1,-1,-1,-1,-1,-1,-1,-1,-1,-1,-1,-1,-1,-1,-1,-1,-1,-1,-1,-1,-1,-1,-1,-1,-1,-1,-1,-1,-1,-1,-1,-1,-1,-1,-1,-1,-1,-1,-1,-1,-1,-1,-1,-1,-1],"split_conditions":[3.386E1,1.069E1,2E0,3E0,3E0,9.247E1,3E0,5.4E-1,3E0,2E0,1.707E1,5.112E1,1.7981E2,9.619E1,5.999E1,6.372E3,1.5E2,2E0,4.56E0,2.611E1,2.508E1,1.1051E4,1.1445E4,2E0,5.94E2,1.2486E2,2.8602E2,2E0,1.8086E2,2.731E3,1.0707E4,1.875E3,3E0,1.1E0,3E0,2E0,2E0,1.775E3,2.777E3,1.867E3,6.486E1,2E0,4.55E2,3.113E3,1.6253E4,2.611E1,1.4367E4,3.91E2,3.287E3,2E0,7.737E1,2E0,3E0,2.52E3,4.828E3,7.168E1,5.317E1,2E0,2.1843E2,6.228E1,7.705E3,8.512E1,2E0,-2.3012401E-1,-6.5486774E-2,-1.8789303E-1,-2.3676886E-1,-1.7679937E-1,-1.2371364E-1,-2.2955345E-1,-1.750467E-1,-1.4589705E-1,-5.6856643E-2,-2.2604169E-1,-1.6252199E-1,-2.1118875E-1,-1.0648582E-1,-1.2374004E-1,-5.9227746E-2,-6.752728E-2,-1.5846465E-2,1.7157964E-2,1.7319219E-1,-1.801948E-1,-1.2122499E-1,-5.980438E-2,-1.0951006E-1,-6.852788E-2,-6.4690765E-3,-1.1067779E-1,-2.4757513E-1,1.6710807E-2,4.7577254E-2,-3.3322085E-2,-1.4808173E-1,-4.24892E-2,2.0575225E-2,4.500974E-2,-8.9538254E-2,2.7094765E-2,7.261663E-2,6.373326E-2,8.379029E-2,9.38333E-2,1.1295125E-1,1.2593442E-1,-9.5643386E-2,1.6023152E-1,1.4157814E-1,1.8456022E-1,1.2792207E-1,-6.839305E-2,-2.1670291E-2,-3.547256E-2,8.259611E-3,4.8092976E-3,4.598655E-2,6.2774844E-2,1.1683871E-1,7.990911E-2,1.075553E-1,6.0291406E-2,4.341191E-3,1.1699243E-1,1.448488E-1,-6.393968E-2,6.174866E-2],"split_indices":[2,1,3,1,3,1,3,1,3,3,2,1,2,2,2,5,0,3,2,1,1,5,5,4,0,2,2,4,1,0,5,0,3,2,3,4,4,5,5,5,1,4,0,5,5,1,5,0,0,4,1,4,4,5,5,2,2,4,2,1,5,2,4,0,0,0,0,0,0,0,0,0,0,0,0,0,0,0,0,0,0,0,0,0,0,0,0,0,0,0,0,0,0,0,0,0,0,0,0,0,0,0,0,0,0,0,0,0,0,0,0,0,0,0,0,0,0,0,0,0,0,0,0,0,0,0,0],"split_type":[0,0,0,0,0,0,0,0,0,0,0,0,0,0,0,0,0,0,0,0,0,0,0,0,0,0,0,0,0,0,0,0,0,0,0,0,0,0,0,0,0,0,0,0,0,0,0,0,0,0,0,0,0,0,0,0,0,0,0,0,0,0,0,0,0,0,0,0,0,0,0,0,0,0,0,0,0,0,0,0,0,0,0,0,0,0,0,0,0,0,0,0,0,0,0,0,0,0,0,0,0,0,0,0,0,0,0,0,0,0,0,0,0,0,0,0,0,0,0,0,0,0,0,0,0,0,0],"sum_hessian":[9.663054E5,3.9000606E5,5.762993E5,1.03202164E5,2.868039E5,2.2564508E5,3.5065422E5,2.9484367E4,7.37178E4,1.780193E5,1.0878461E5,8.445995E4,1.4118512E5,3.0199572E5,4.865852E4,1.3535207E4,1.5949159E4,2.8388215E4,4.5329582E4,4.9502047E4,1.2851724E5,5.4598273E4,5.4186336E4,2.6291121E4,5.8168832E4,8.9252586E4,5.1932535E4,1.7767266E5,1.24323055E5,3.1290754E4,1.7367766E4,8.851434E3,4.683774E3,6.2217197E3,9.727439E3,5.89301E3,2.2495205E4,1.6909416E4,2.8420166E4,2.5133008E4,2.4369041E4,5.7593035E4,7.092421E4,5.2988848E4,1.6094263E3,5.303109E4,1.1552449E3,1.5539215E4,1.0751906E4,1.4818011E4,4.335082E4,4.8681773E4,4.0570816E4,3.444289E4,1.7489643E4,9.507589E4,8.259677E4,5.682105E4,6.7502E4,2.468073E4,6.610023E3,1.7188344E4,1.794216E2,8.769334E3,8.209975E1,3.1335383E3,1.5502356E3,2.6000068E3,3.6217126E3,3.023939E3,6.7035005E3,1.4758628E3,4.417147E3,7.770063E3,1.4725142E4,9.677176E2,1.5941699E4,3.491955E3,2.492821E4,5.3907456E3,1.9742262E4,2.3734643E4,6.34398E2,2.6002697E4,3.1590338E4,2.7860615E4,4.3063594E4,7.0892095E3,4.589964E4,1.2325907E3,3.7683563E2,1.6028069E4,3.700302E4,7.929474E2,3.6229742E2,2.3501445E3,1.3189071E4,1.0565193E4,1.8671227E2,8.381548E3,6.436463E3,2.7328322E4,1.60225E4,2.853324E4,2.0148531E4,4.049044E4,8.037265E1,1.7375441E4,1.7067451E4,1.668094E4,8.0870374E2,6.2266836E4,3.280905E4,3.6252625E4,4.634415E4,3.71261E4,1.9694951E4,4.781544E4,1.968656E4,1.6558848E4,8.1218843E3,5.375869E3,1.2341538E3,1.0183115E4,7.0052285E3,1.14107124E2,6.5314476E1],"tree_param":{"num_deleted":"0","num_feature":"7","num_nodes":"127","size_leaf_vector":"1"}},{"base_weights":[-8.77668E-4,-3.3811232E-1,1.9148104E-1,-4.8950902E-1,-1.5754773E-1,5.388777E-2,4.3090132E-1,-1.0914831E-1,-6.2242824E-1,-5.0745964E-1,-1.7360643E-3,2.4909325E-1,-3.548051E-2,6.1347324E-1,2.561364E-1,-1.0249443E0,-7.296601E-2,-7.94448E-1,-4.7598416E-1,-7.5892293E-1,-3.917009E-1,-1.3664196E-1,9.663553E-2,1.4915931E-1,3.278377E-1,-1.3904351E-1,3.700006E-1,5.2817684E-1,7.4516284E-1,1.9849579E-1,4.913958E-1,-1.0576152E0,-4.4177687E-1,-4.3779564E-1,-4.857348E-2,-9.513564E-1,-7.161708E-1,-6.1777854E-1,-3.646757E-1,-1.1584554E0,-6.7082345E-1,-3.3701253E-1,-6.1276436E-1,-2.633783E-1,-2.3399351E-2,1.16519675E-1,-1.7451395E-1,-3.8291927E-2,1.7955533E-1,2.2567797E-1,3.5936487E-1,-2.2137529E-1,-2.2791957E-2,2.7105653E-1,4.501462E-1,4.72538E-1,5.677292E-1,7.003596E-1,8.6429125E-1,1.8074283E-1,6.561249E-1,4.226918E-1,7.352885E-1,-2.422499E-1,-1.983795E-1,-2.693914E-1,-4.9330045E-2,-1.423018E-1,-7.2678395E-2,1.1351259E-1,-1.207672E-2,1.429118E-2,-1.9066373E-1,-1.7482512E-1,-1.2005021E-1,-1.0934584E-1,-1.8870382E-1,-2.267583E-2,-8.899805E-2,-2.2687998E-1,-1.7522267E-1,-1.3622135E-1,6.5381534E-2,-8.95475E-2,-4.848764E-2,-1.6936657E-1,-1.0388214E-1,-3.9395962E-2,-1.2090698E-1,5.564557E-2,-1.1014682E-2,-1.36935515E-2,2.8490668E-2,-2.6486238E-2,-1.5352352E-1,-6.6699214E-2,9.333215E-3,2.4304358E-2,4.507683E-2,1.05671614E-1,3.611133E-2,2.785372E-1,6.943513E-2,-6.1720997E-2,-2.501584E-2,-1.891771E-2,1.7027523E-2,6.4166434E-2,3.2205705E-2,8.813241E-2,-2.1293333E-1,1.7483862E-1,9.053265E-2,2.0731272E-1,1.0966422E-1,1.366636E-1,-2.7262554E-1,1.866463E-1,1.589772E-1,2.3671156E-2,5.8968786E-2,1.2941912E-1,-1.9177508E-2,6.92016E-2,1.10161945E-1,1.2067943E-1,1.6680111E-1],"categories":[],"categories_nodes":[],"categories_segments":[],"categories_sizes":[],"default_left":[0,0,0,0,0,0,0,0,0,0,0,0,0,0,0,0,0,0,0,0,0,0,0,0,0,0,0,0,0,0,0,0,0,0,0,0,0,0,0,0,0,0,0,0,0,0,0,0,0,0,0,0,0,0,0,0,0,0,0,0,0,0,0,0,0,0,0,0,0,0,0,0,0,0,0,0,0,0,0,0,0,0,0,0,0,0,0,0,0,0,0,0,0,0,0,0,0,0,0,0,0,0,0,0,0,0,0,0,0,0,0,0,0,0,0,0,0,0,0,0,0,0,0,0,0,0,0],"id":5,"left_children":[1,3,5,7,9,11,13,15,17,19,21,23,25,27,29,31,33,35,37,39,41,43,45,47,49,51,53,55,57,59,61,63,65,67,69,71,73,75,77,79,81,83,85,87,89,91,93,95,97,99,101,103,105,107,109,111,113,115,117,119,121,123,125,-1,-1,-1,-1,-1,-1,-1,-1,-1,-1,-1,-1,-1,-1,-1,-1,-1,-1,-1,-1,-1,-1,-1,-1,-1,-1,-1,-1,-1,-1,-1,-1,-1,-1,-1,-1,-1,-1,-1,-1,-1,-1,-1,-1,-1,-1,-1,-1,-1,-1,-1,-1,-1,-1,-1,-1,-1,-1,-1,-1,-1,-1,-1,-1],"loss_changes":[6.1218008E4,9.369715E3,1.979578E4,9.42534E3,8.522899E3,6.657605E3,6.99666E3,1.5990122E3,3.4788203E3,1.4006494E3,1.4355635E3,9.426787E2,1.0992565E4,1.2031562E3,1.5188613E3,3.3041504E1,4.129923E2,7.7785547E2,1.176832E3,5.31583E2,3.9774658E2,6.5449316E2,3.372539E2,3.0109827E2,2.1530713E2,1.9956003E3,4.215796E2,1.4204492E2,2.2279883E2,7.304468E2,3.680625E2,8.754272E0,1.6209015E1,5.378473E1,3.6900485E2,5.9815234E2,7.655137E2,6.472676E2,9.574282E2,1.223877E0,3.5868115E2,2.8522095E2,1.3147046E2,4.692339E2,2.4680626E2,3.241471E2,1.00145584E2,1.934709E2,1.2886707E2,2.0112006E2,1.5458545E2,1.0832246E3,7.084013E2,1.4671033E2,1.0747266E2,8.7006836E1,8.604199E1,8.630371E1,4.9328125E1,6.256577E2,2.171875E1,1.6471167E2,6.583276E1,0E0,0E0,0E0,0E0,0E0,0E0,0E0,0E0,0E0,0E0,0E0,0E0,0E0,0E0,0E0,0E0,0E0,0E0,0E0,0E0,0E0,0E0,0E0,0E0,0E0,0E0,0E0,0E0,0E0,0E0,0E0,0E0,0E0,0E0,0E0,0E0,0E0,0E0,0E0,0E0,0E0,0E0,0E0,0E0,0E0,0E0,0E0,0E0,0E0,0E0,0E0,0E0,0E0,0E0,0E0,0E0,0E0,0E0,0E0,0E0,0E0,0E0,0E0,0E0],"parents":[2147483647,0,0,1,1,2,2,3,3,4,4,5,5,6,6,7,7,8,8,9,9,10,10,11,11,12,12,13,13,14,14,15,15,16,16,17,17,18,18,19,19,20,20,21,21,22,22,23,23,24,24,25,25,26,26,27,27,28,28,29,29,30,30,31,31,32,32,33,33,34,34,35,35,36,36,37,37,38,38,39,39,40,40,41,41,42,42,43,43,44,44,45,45,46,46,47,47,48,48,49,49,50,50,51,51,52,52,53,53,54,54,55,55,56,56,57,57,58,58,59,59,60,60,61,61,62,62],"right_children":[2,4,6,8,10,12,14,16,18,20,22,24,26,28,30,32,34,36,38,40,42,44,46,48,50,52,54,56,58,60,62,64,66,68,70,72,74,76,78,80,82,84,86,88,90,92,94,96,98,100,102,104,106,108,110,112,114,116,118,120,122,124,126,-1,-1,-1,-1,-1,-1,-1,-1,-1,-1,-1,-1,-1,-1,-1,-1,-1,-1,-1,-1,-1,-1,-1,-1,-1,-1,-1,-1,-1,-1,-1,-1,-1,-1,-1,-1,-1,-1,-1,-1,-1,-1,-1,-1,-1,-1,-1,-1,-1,-1,-1,-1,-1,-1,-1,-1,-1,-1,-1,-1,-1,-1,-1,-1],"split_conditions":[2.98E1,3E0,1.0431E2,2E0,6.94E0,2E0,2E0,2.8E1,1.443E1,2.65E0,1.374E1,5.534E1,3E0,1.9249E2,2.0837E2,2.8808767E-1,7.62E2,2E0,2E0,1.1E1,8.47E2,2E0,8.893E3,1.34E3,6.71E2,6.51E1,4.257E1,1.3266E2,3.1969E2,3E0,3.1969E2,1.714E3,1.174E3,1.170822E1,1.8E-1,5.1E-1,3.97E0,1.229E3,3.63E2,1.8E-1,7.1523506E1,2E0,3.819E3,1.653E3,1.5674438E1,3.043E3,1.6253E4,3.34E2,2E0,9.639967E1,1.8740515E2,2E0,2E0,1.999E3,1.4367E4,1.8004767E2,2.2024176E2,1.2532E4,1.676E3,2E0,1.0202E4,2E0,3.8509E2,-2.422499E-1,-1.983795E-1,-2.693914E-1,-4.9330045E-2,-1.423018E-1,-7.2678395E-2,1.1351259E-1,-1.207672E-2,1.429118E-2,-1.9066373E-1,-1.7482512E-1,-1.2005021E-1,-1.0934584E-1,-1.8870382E-1,-2.267583E-2,-8.899805E-2,-2.2687998E-1,-1.7522267E-1,-1.3622135E-1,6.5381534E-2,-8.95475E-2,-4.848764E-2,-1.6936657E-1,-1.0388214E-1,-3.9395962E-2,-1.2090698E-1,5.564557E-2,-1.1014682E-2,-1.36935515E-2,2.8490668E-2,-2.6486238E-2,-1.5352352E-1,-6.6699214E-2,9.333215E-3,2.4304358E-2,4.507683E-2,1.05671614E-1,3.611133E-2,2.785372E-1,6.943513E-2,-6.1720997E-2,-2.501584E-2,-1.891771E-2,1.7027523E-2,6.4166434E-2,3.2205705E-2,8.813241E-2,-2.1293333E-1,1.7483862E-1,9.053265E-2,2.0731272E-1,1.0966422E-1,1.366636E-1,-2.7262554E-1,1.866463E-1,1.589772E-1,2.3671156E-2,5.8968786E-2,1.2941912E-1,-1.9177508E-2,6.92016E-2,1.10161945E-1,1.2067943E-1,1.6680111E-1],"split_indices":[2,3,2,3,2,3,3,0,2,2,2,2,3,2,2,6,5,4,4,0,0,4,5,5,0,2,2,2,2,3,2,5,5,6,2,2,2,0,0,2,6,4,5,0,6,5,5,0,4,6,6,4,4,0,5,6,6,5,5,4,5,4,2,0,0,0,0,0,0,0,0,0,0,0,0,0,0,0,0,0,0,0,0,0,0,0,0,0,0,0,0,0,0,0,0,0,0,0,0,0,0,0,0,0,0,0,0,0,0,0,0,0,0,0,0,0,0,0,0,0,0,0,0,0,0,0,0],"split_type":[0,0,0,0,0,0,0,0,0,0,0,0,0,0,0,0,0,0,0,0,0,0,0,0,0,0,0,0,0,0,0,0,0,0,0,0,0,0,0,0,0,0,0,0,0,0,0,0,0,0,0,0,0,0,0,0,0,0,0,0,0,0,0,0,0,0,0,0,0,0,0,0,0,0,0,0,0,0,0,0,0,0,0,0,0,0,0,0,0,0,0,0,0,0,0,0,0,0,0,0,0,0,0,0,0,0,0,0,0,0,0,0,0,0,0,0,0,0,0,0,0,0,0,0,0,0,0],"sum_hessian":[9.436974E5,3.427703E5,6.0092706E5,1.8644016E5,1.5633016E5,3.8161856E5,2.1930852E5,4.8282875E4,1.3815728E5,4.816212E4,1.0816803E5,1.1984605E5,2.617725E5,1.072544E5,1.12054125E5,1.8325299E3,4.6450344E4,6.3525125E4,7.4632164E4,1.5177015E4,3.298511E4,4.5616574E4,6.255146E4,5.2823043E4,6.7023E4,2.0851828E5,5.325423E4,6.510177E4,4.215263E4,9.000776E4,2.2046363E4,1.7327845E3,9.974531E1,2.9073157E3,4.354303E4,2.1133588E4,4.2391535E4,3.2815027E4,4.1817133E4,2.7366685E3,1.2440346E4,2.6449525E4,6.535583E3,2.1521688E4,2.4094889E4,5.828121E4,4.2702476E3,7.366952E3,4.545609E4,1.581472E4,5.1208285E4,1.2206292E5,8.645535E4,2.3839635E4,2.9414594E4,2.70671E4,3.803467E4,3.0645312E4,1.1507314E4,8.6650336E4,3.3574275E3,1.7206963E4,4.8394014E3,2.8790317E2,1.4448813E3,1.4146864E1,8.559844E1,5.204051E2,2.3869104E3,9.0441296E2,4.2638617E4,5.531598E2,2.0580428E4,1.5033936E4,2.73576E4,2.8281959E4,4.533069E3,1.1334618E4,3.0482516E4,2.6615974E3,7.507094E1,1.2097989E4,3.4235712E2,1.1041553E4,1.5407973E4,1.5370298E3,4.998553E3,1.8383459E4,3.1382275E3,2.3306262E3,2.1764262E4,8.004858E3,5.027635E4,4.0211624E3,2.490853E2,1.6276447E3,5.7393076E3,2.2123621E4,2.333247E4,1.7786376E3,1.4036082E4,1.3336911E2,5.1074914E4,6.0187246E4,6.187568E4,5.1635492E4,3.481986E4,1.5348995E4,8.490641E3,2.9371424E4,4.3170906E1,4.7682443E2,2.6590275E4,3.4931314E2,3.768536E4,3.0627543E4,1.7769083E1,3.875242E3,7.6320728E3,5.8348926E4,2.8301406E4,3.3217927E3,3.563477E1,1.1701192E4,5.5057695E3,2.4839807E3,2.3554204E3],"tree_param":{"num_deleted":"0","num_feature":"7","num_nodes":"127","size_leaf_vector":"1"}},{"base_weights":[-8.62107E-4,-2.836225E-1,1.6619852E-1,-6.637886E-1,-2.1716942E-1,3.8012257E-1,4.6642087E-2,-9.1540575E-1,-5.5453426E-1,-3.43748E-1,-4.1738756E-2,2.527641E-1,5.6225824E-1,-1.7947176E-2,2.5802106E-1,-9.85087E-1,-7.914315E-1,-7.470362E-1,-4.540746E-1,-5.1746868E-2,-4.8776925E-1,-1.8351422E-1,4.8157807E-2,1.6664055E-1,3.2400027E-1,5.065941E-1,7.172264E-1,-9.332857E-2,3.0137247E-1,2.0506771E-1,4.3553004E-1,-1.0431972E0,-8.6600566E-1,1.2646906E0,-8.1924725E-1,-4.9067643E-1,-9.0189195E-1,-6.5728354E-1,-4.0886235E-1,-2.2239083E-1,-1.1755252E-3,-3.9591736E-1,-6.971512E-1,-1.1969903E-1,-3.572995E-1,7.7864006E-2,-1.3454278E-1,2.8459279E-2,1.8378508E-1,3.2630116E-1,-5.715254E-1,5.201762E-1,3.110163E-1,6.587512E-1,7.9733723E-1,-1.9407345E-1,-1.466493E-2,2.3554303E-1,4.08024E-1,1.8834244E-1,5.960742E-1,3.9591417E-1,7.584354E-1,-1.9178596E-1,-2.059284E-1,-1.5372664E-1,-2.1120535E-1,4.4097535E-2,3.5817432E-1,-1.3094048E-1,-1.7785788E-1,-1.652712E-1,-8.515215E-2,-9.948569E-2,-1.9002268E-1,-4.0176925E-3,-1.3552235E-1,-7.6601006E-2,-1.8330029E-1,-8.110353E-2,-3.3665862E-2,-3.166548E-2,4.417464E-3,-1.00393645E-1,-5.6712206E-2,-1.6287737E-1,-1.03613526E-1,-3.1683236E-2,6.0571064E-3,-6.452912E-2,-2.1020676E-1,-4.9115796E-2,1.8530406E-2,-1.7814409E-2,-9.390434E-2,-4.98745E-2,2.0824326E-2,3.9973628E-2,1.5168676E-2,5.4907344E-2,7.140167E-2,-4.391018E-3,-1.5978383E-1,9.329117E-2,1.134821E-1,6.476907E-2,-1.868024E-1,1.3371477E-1,9.51725E-2,1.5580752E-1,-2.0969895E-1,-2.2964403E-2,-6.3915804E-2,1.407228E-2,-2.4216583E-2,9.099815E-3,5.273012E-2,6.5029E-2,8.9726165E-2,8.299731E-2,3.185885E-2,1.2457519E-1,8.557357E-2,1.3477461E-1,7.208776E-2,1.20701954E-1,1.6527672E-1],"categories":[],"categories_nodes":[],"categories_segments":[],"categories_sizes":[],"default_left":[0,0,0,0,0,0,0,0,0,0,0,0,0,0,0,0,0,0,0,0,0,0,0,0,0,0,0,0,0,0,0,0,0,0,0,0,0,0,0,0,0,0,0,0,0,0,0,0,0,0,0,0,0,0,0,0,0,0,0,0,0,0,0,0,0,0,0,0,0,0,0,0,0,0,0,0,0,0,0,0,0,0,0,0,0,0,0,0,0,0,0,0,0,0,0,0,0,0,0,0,0,0,0,0,0,0,0,0,0,0,0,0,0,0,0,0,0,0,0,0,0,0,0,0,0,0,0],"id":6,"left_children":[1,3,5,7,9,11,13,15,17,19,21,23,25,27,29,31,33,35,37,39,41,43,45,47,49,51,53,55,57,59,61,63,65,67,69,71,73,75,77,79,81,83,85,87,89,91,93,95,97,99,101,103,105,107,109,111,113,115,117,119,121,123,125,-1,-1,-1,-1,-1,-1,-1,-1,-1,-1,-1,-1,-1,-1,-1,-1,-1,-1,-1,-1,-1,-1,-1,-1,-1,-1,-1,-1,-1,-1,-1,-1,-1,-1,-1,-1,-1,-1,-1,-1,-1,-1,-1,-1,-1,-1,-1,-1,-1,-1,-1,-1,-1,-1,-1,-1,-1,-1,-1,-1,-1,-1,-1,-1],"loss_changes":[4.361168E4,8.661428E3,1.4842584E4,1.4004746E3,6.480869E3,4.825381E3,5.0829834E3,1.3072949E2,6.865459E2,7.129369E3,1.5592633E3,7.5077344E2,7.369863E2,6.8638145E3,8.1842676E2,6.5356445E1,3.1996143E2,4.8232178E2,2.1359814E2,4.831272E2,2.1822695E3,5.2605945E2,4.0627826E2,1.311753E2,1.3822168E2,1.6645703E2,1.0397461E2,1.8281229E3,3.817085E2,4.3818433E2,2.5469067E2,2.1635742E0,5.163623E1,4.2293938E1,7.3637695E1,8.64082E1,2.1722803E2,1.0373364E2,1.5691309E2,1.2246863E2,1.6647456E2,9.87291E2,7.9358594E2,2.2515964E2,2.3746289E2,3.67148E2,1.5623413E2,1.3670082E2,1.118147E2,1.189126E2,2.2793827E1,1.5031445E2,1.12196014E2,6.043506E1,4.8391113E1,1.0326721E3,1.2349968E3,2.2357202E2,8.0282715E1,3.7857324E2,1.749353E1,1.3495386E2,2.531836E1,0E0,0E0,0E0,0E0,0E0,0E0,0E0,0E0,0E0,0E0,0E0,0E0,0E0,0E0,0E0,0E0,0E0,0E0,0E0,0E0,0E0,0E0,0E0,0E0,0E0,0E0,0E0,0E0,0E0,0E0,0E0,0E0,0E0,0E0,0E0,0E0,0E0,0E0,0E0,0E0,0E0,0E0,0E0,0E0,0E0,0E0,0E0,0E0,0E0,0E0,0E0,0E0,0E0,0E0,0E0,0E0,0E0,0E0,0E0,0E0,0E0,0E0,0E0,0E0],"parents":[2147483647,0,0,1,1,2,2,3,3,4,4,5,5,6,6,7,7,8,8,9,9,10,10,11,11,12,12,13,13,14,14,15,15,16,16,17,17,18,18,19,19,20,20,21,21,22,22,23,23,24,24,25,25,26,26,27,27,28,28,29,29,30,30,31,31,32,32,33,33,34,34,35,35,36,36,37,37,38,38,39,39,40,40,41,41,42,42,43,43,44,44,45,45,46,46,47,47,48,48,49,49,50,50,51,51,52,52,53,53,54,54,55,55,56,56,57,57,58,58,59,59,60,60,61,61,62,62],"right_children":[2,4,6,8,10,12,14,16,18,20,22,24,26,28,30,32,34,36,38,40,42,44,46,48,50,52,54,56,58,60,62,64,66,68,70,72,74,76,78,80,82,84,86,88,90,92,94,96,98,100,102,104,106,108,110,112,114,116,118,120,122,124,126,-1,-1,-1,-1,-1,-1,-1,-1,-1,-1,-1,-1,-1,-1,-1,-1,-1,-1,-1,-1,-1,-1,-1,-1,-1,-1,-1,-1,-1,-1,-1,-1,-1,-1,-1,-1,-1,-1,-1,-1,-1,-1,-1,-1,-1,-1,-1,-1,-1,-1,-1,-1,-1,-1,-1,-1,-1,-1,-1,-1,-1,-1,-1,-1],"split_conditions":[3.957E1,6.24E0,2E0,1.62E0,3E0,1.3611E2,1.6287E2,1.1E1,3E0,2E0,1.133E1,7.332E1,2.4401E2,3E0,2.9734E2,6.453E3,1.0849315E-3,1.5E2,3.457E3,1.736E1,7.3E2,9.8E2,2.488E3,1.067E3,1.1445E4,5.39E3,3.6943E2,7.842E1,4.978E1,3E0,3.8509E2,2E0,3E0,7.42E2,1.06E2,1.839E3,2E0,9.9E1,1.1983E4,1.991E3,1.174E3,2.278E1,1.784E1,3.3687847E1,1.3209E4,1.991E3,9.226E3,3.63E2,1.726E3,9.92E1,5.534E1,1.9917E2,1.3209E4,3.748E3,1.04E4,8.64E2,1.56E3,2.489E1,7.533E1,8.34E2,3.226E3,9.44E2,4.9747E2,-1.9178596E-1,-2.059284E-1,-1.5372664E-1,-2.1120535E-1,4.4097535E-2,3.5817432E-1,-1.3094048E-1,-1.7785788E-1,-1.652712E-1,-8.515215E-2,-9.948569E-2,-1.9002268E-1,-4.0176925E-3,-1.3552235E-1,-7.6601006E-2,-1.8330029E-1,-8.110353E-2,-3.3665862E-2,-3.166548E-2,4.417464E-3,-1.00393645E-1,-5.6712206E-2,-1.6287737E-1,-1.03613526E-1,-3.1683236E-2,6.0571064E-3,-6.452912E-2,-2.1020676E-1,-4.9115796E-2,1.8530406E-2,-1.7814409E-2,-9.390434E-2,-4.98745E-2,2.0824326E-2,3.9973628E-2,1.5168676E-2,5.4907344E-2,7.140167E-2,-4.391018E-3,-1.5978383E-1,9.329117E-2,1.134821E-1,6.476907E-2,-1.868024E-1,1.3371477E-1,9.51725E-2,1.5580752E-1,-2.0969895E-1,-2.2964403E-2,-6.3915804E-2,1.407228E-2,-2.4216583E-2,9.099815E-3,5.273012E-2,6.5029E-2,8.9726165E-2,8.299731E-2,3.185885E-2,1.2457519E-1,8.557357E-2,1.3477461E-1,7.208776E-2,1.20701954E-1,1.6527672E-1],"split_indices":[1,1,3,1,3,1,1,0,3,3,2,1,2,3,1,5,6,0,5,1,0,0,0,5,5,5,1,1,2,3,2,3,3,0,0,5,3,0,5,5,5,1,2,6,5,5,5,0,0,1,2,1,5,5,5,0,0,2,1,0,0,0,1,0,0,0,0,0,0,0,0,0,0,0,0,0,0,0,0,0,0,0,0,0,0,0,0,0,0,0,0,0,0,0,0,0,0,0,0,0,0,0,0,0,0,0,0,0,0,0,0,0,0,0,0,0,0,0,0,0,0,0,0,0,0,0,0],"split_type":[0,0,0,0,0,0,0,0,0,0,0,0,0,0,0,0,0,0,0,0,0,0,0,0,0,0,0,0,0,0,0,0,0,0,0,0,0,0,0,0,0,0,0,0,0,0,0,0,0,0,0,0,0,0,0,0,0,0,0,0,0,0,0,0,0,0,0,0,0,0,0,0,0,0,0,0,0,0,0,0,0,0,0,0,0,0,0,0,0,0,0,0,0,0,0,0,0,0,0,0,0,0,0,0,0,0,0,0,0,0,0,0,0,0,0,0,0,0,0,0,0,0,0,0,0,0,0],"sum_hessian":[9.2322525E5,3.4288106E5,5.803442E5,5.1013773E4,2.9186728E5,2.0805623E5,3.7228794E5,1.5438569E4,3.5575203E4,1.6953605E5,1.2233125E5,1.224448E5,8.561144E4,2.8515403E5,8.7133914E4,9.87192E3,5.56665E3,1.2192773E4,2.338243E4,5.600139E4,1.1353465E5,4.747108E4,7.486017E4,5.5437555E4,6.700724E4,6.299572E4,2.261572E4,2.3069716E5,5.445688E4,6.71192E4,2.001471E4,6.621184E3,3.2507354E3,7.29143E1,5.493736E3,4.596073E3,7.5966997E3,4.248328E3,1.9134102E4,1.2797662E4,4.320373E4,7.892172E4,3.461293E4,3.472642E4,1.2744655E4,6.439487E4,1.0465304E4,6.124265E3,4.931329E4,6.683744E4,1.698042E2,5.8898816E4,4.0969E3,1.3087789E4,9.527933E3,1.0114653E5,1.29550625E5,3.3680434E4,2.0776443E4,6.437022E4,2.74898E3,1.7833002E4,2.1817087E3,1.3212241E3,5.29996E3,2.4141406E3,8.3659485E2,2.7287352E1,4.562695E1,2.1509912E3,3.3427444E3,5.923049E2,4.0037686E3,1.2090863E3,6.3876133E3,2.437131E2,4.004615E3,1.8594771E4,5.393303E2,2.5972778E3,1.0200385E4,5.565969E3,3.7637758E4,3.6849516E4,4.2072203E4,1.8781234E4,1.5831696E4,2.7028525E4,7.697896E3,1.2305362E4,4.3929312E2,3.2001438E3,6.1194727E4,9.31519E3,1.150113E3,1.320893E3,4.803372E3,4.099904E4,8.314251E3,3.1821982E4,3.5015457E4,5.4470875E1,1.1533332E2,3.551588E4,2.3382938E4,4.030437E3,6.64629E1,1.1241618E4,1.8461714E3,9.515936E3,1.1996886E1,6.451217E4,3.663436E4,7.226955E4,5.728108E4,5.295132E3,2.8385303E4,8.639769E3,1.2136675E4,6.0665117E3,5.8303707E4,2.143409E3,6.055711E2,1.422991E3,1.6410012E4,8.680476E2,1.3136611E3],"tree_param":{"num_deleted":"0","num_feature":"7","num_nodes":"127","size_leaf_vector":"1"}},{"base_weights":[-9.998359E-4,-2.567059E-1,1.24045275E-1,-3.8065067E-1,-1.2476018E-1,5.0319854E-2,3.5871124E-1,-9.568953E-2,-4.847088E-1,-4.13077E-1,-3.139765E-2,1.8605594E-1,-1.2829978E-2,4.882592E-1,2.2704184E-1,-8.956328E-1,-6.672885E-2,-6.3829327E-1,-3.730236E-1,-9.8857844E-1,-3.7039003E-1,-8.6756684E-2,7.715033E-2,1.1106498E-1,2.7012658E-1,-7.600874E-2,2.5121182E-1,4.3335384E-1,6.268355E-1,1.9444206E-1,4.4513193E-1,-9.40098E-1,-6.041201E-1,-7.505858E-2,6.4725727E-1,-8.085707E-1,-5.618354E-1,-5.25537E-1,-2.5956655E-1,-1.0400815E0,-7.0266527E-1,-5.1711893E-1,-2.9446065E-1,-1.8438601E-1,3.3140157E-3,2.2889372E-2,1.4685664E-1,-3.6756977E-2,1.3237357E-1,1.4373815E-1,2.9063246E-1,-1.4739111E-1,1.170267E-2,1.9502522E-1,3.5305914E-1,3.9974684E-1,4.991444E-1,5.852412E-1,7.512727E-1,1.5043479E-1,2.931117E-1,3.878928E-1,6.5718687E-1,-1.9998154E-1,-1.5813404E-1,-2.2206105E-1,-7.874326E-2,-9.359302E-3,-6.558044E-2,1.3042858E-1,-1.4604735E-2,5.492569E-3,-1.6377622E-1,-1.7066312E-1,-9.6861996E-2,-9.035272E-2,-1.6831933E-1,-1.0504555E-2,-6.778474E-2,-2.0322831E-1,-4.3317307E-2,-1.5169473E-1,-2.4455842E-2,-1.4943124E-1,-7.993747E-2,-4.3633822E-2,-9.497309E-2,-1.3248405E-1,-2.8973464E-2,2.5177659E-3,-1.5685456E-1,-7.0226684E-2,7.610394E-3,3.0536247E-2,-1.2018199E-1,-1.20066285E-1,-1.6750628E-3,2.6265148E-2,-1.3465434E-1,1.0899239E-1,1.4964675E-2,2.579134E-1,5.598725E-2,-2.0776108E-2,-6.199044E-2,1.411308E-1,7.451113E-4,3.9030142E-2,-1.13897495E-1,8.024714E-2,5.5068843E-2,4.0804338E-2,8.283184E-2,9.837869E-2,-9.712942E-2,1.1822363E-1,8.372297E-2,1.701496E-1,1.3541552E-1,2.7518038E-2,9.958239E-2,8.690288E-2,4.643701E-2,6.26085E-2,1.0143599E-1,2.1628426E-1,1.2217899E-1],"categories":[],"categories_nodes":[],"categories_segments":[],"categories_sizes":[],"default_left":[0,0,0,0,0,0,0,0,0,0,0,0,0,0,0,0,0,0,0,0,0,0,0,0,0,0,0,0,0,0,0,0,0,0,0,0,0,0,0,0,0,0,0,0,0,0,0,0,0,0,0,0,0,0,0,0,0,0,0,0,0,0,0,0,0,0,0,0,0,0,0,0,0,0,0,0,0,0,0,0,0,0,0,0,0,0,0,0,0,0,0,0,0,0,0,0,0,0,0,0,0,0,0,0,0,0,0,0,0,0,0,0,0,0,0,0,0,0,0,0,0,0,0,0,0,0,0],"id":7,"left_children":[1,3,5,7,9,11,13,15,17,19,21,23,25,27,29,31,33,35,37,39,41,43,45,47,49,51,53,55,57,59,61,63,65,67,69,71,73,75,77,79,81,83,85,87,89,91,93,95,97,99,101,103,105,107,109,111,113,115,117,119,121,123,125,-1,-1,-1,-1,-1,-1,-1,-1,-1,-1,-1,-1,-1,-1,-1,-1,-1,-1,-1,-1,-1,-1,-1,-1,-1,-1,-1,-1,-1,-1,-1,-1,-1,-1,-1,-1,-1,-1,-1,-1,-1,-1,-1,-1,-1,-1,-1,-1,-1,-1,-1,-1,-1,-1,-1,-1,-1,-1,-1,-1,-1,-1,-1,-1],"loss_changes":[2.891226E4,4.8560605E3,1.0505699E4,4.5398926E3,3.8716436E3,3.9610015E3,2.4755312E3,9.4815576E2,1.9227402E3,8.6270654E2,6.529812E2,9.247007E2,5.2607515E3,5.5548047E2,5.1129468E2,1.642212E1,2.347875E2,6.1292773E2,1.1229766E3,3.3197998E1,3.6410303E2,6.329781E2,1.386701E2,2.4437457E2,1.7887695E2,1.5933994E3,3.479087E2,1.14890625E2,1.05691895E2,2.7161548E2,1.123916E2,1.0933594E1,1.9100807E1,2.7582764E2,7.8856964E0,3.9611133E2,6.5933887E2,5.765205E2,6.772473E2,4.322998E0,1.5794937E1,2.965415E2,2.930724E2,6.0932153E2,2.9041913E2,1.2790547E2,1.2160492E2,1.5898372E2,1.3832776E2,2.683496E2,1.9332715E2,9.7592847E2,6.406388E2,1.6428394E2,8.900952E1,1.6804736E2,1.0590332E2,5.1435547E1,3.334912E1,1.4242584E2,1.6101318E2,6.423596E1,2.438678E1,0E0,0E0,0E0,0E0,0E0,0E0,0E0,0E0,0E0,0E0,0E0,0E0,0E0,0E0,0E0,0E0,0E0,0E0,0E0,0E0,0E0,0E0,0E0,0E0,0E0,0E0,0E0,0E0,0E0,0E0,0E0,0E0,0E0,0E0,0E0,0E0,0E0,0E0,0E0,0E0,0E0,0E0,0E0,0E0,0E0,0E0,0E0,0E0,0E0,0E0,0E0,0E0,0E0,0E0,0E0,0E0,0E0,0E0,0E0,0E0,0E0,0E0,0E0,0E0],"parents":[2147483647,0,0,1,1,2,2,3,3,4,4,5,5,6,6,7,7,8,8,9,9,10,10,11,11,12,12,13,13,14,14,15,15,16,16,17,17,18,18,19,19,20,20,21,21,22,22,23,23,24,24,25,25,26,26,27,27,28,28,29,29,30,30,31,31,32,32,33,33,34,34,35,35,36,36,37,37,38,38,39,39,40,40,41,41,42,42,43,43,44,44,45,45,46,46,47,47,48,48,49,49,50,50,51,51,52,52,53,53,54,54,55,55,56,56,57,57,58,58,59,59,60,60,61,61,62,62],"right_children":[2,4,6,8,10,12,14,16,18,20,22,24,26,28,30,32,34,36,38,40,42,44,46,48,50,52,54,56,58,60,62,64,66,68,70,72,74,76,78,80,82,84,86,88,90,92,94,96,98,100,102,104,106,108,110,112,114,116,118,120,122,124,126,-1,-1,-1,-1,-1,-1,-1,-1,-1,-1,-1,-1,-1,-1,-1,-1,-1,-1,-1,-1,-1,-1,-1,-1,-1,-1,-1,-1,-1,-1,-1,-1,-1,-1,-1,-1,-1,-1,-1,-1,-1,-1,-1,-1,-1,-1,-1,-1,-1,-1,-1,-1,-1,-1,-1,-1,-1,-1,-1,-1,-1,-1,-1,-1],"split_conditions":[2.693E1,3E0,1.2993E2,2E0,5.74E0,2E0,2E0,2.8E1,1.286E1,2.8E1,1.707E1,6.688E1,3E0,2.4401E2,2.6171E2,1.1E1,7.931588E2,2E0,2E0,1.8E-1,2E0,2E0,2E0,1.23E3,5.94E2,6.781E1,4.978E1,2E0,3.8509E2,2E0,3.8509E2,3.287E3,2.11E3,1.606E3,6.34E3,5.1E-1,1.1E1,1.427E3,3.63E2,1.3209E4,8.036E3,3.975E3,6.93E2,2.138E3,3E0,1.991E3,3E0,1.8E2,3E0,1.179508E2,2.0320175E2,1.497E3,1.179508E2,1.3209E4,2.028E3,1.014E3,3E0,4.05E3,1.518E3,3E0,1.098E3,2E0,1.264875E3,-1.9998154E-1,-1.5813404E-1,-2.2206105E-1,-7.874326E-2,-9.359302E-3,-6.558044E-2,1.3042858E-1,-1.4604735E-2,5.492569E-3,-1.6377622E-1,-1.7066312E-1,-9.6861996E-2,-9.035272E-2,-1.6831933E-1,-1.0504555E-2,-6.778474E-2,-2.0322831E-1,-4.3317307E-2,-1.5169473E-1,-2.4455842E-2,-1.4943124E-1,-7.993747E-2,-4.3633822E-2,-9.497309E-2,-1.3248405E-1,-2.8973464E-2,2.5177659E-3,-1.5685456E-1,-7.0226684E-2,7.610394E-3,3.0536247E-2,-1.2018199E-1,-1.20066285E-1,-1.6750628E-3,2.6265148E-2,-1.3465434E-1,1.0899239E-1,1.4964675E-2,2.579134E-1,5.598725E-2,-2.0776108E-2,-6.199044E-2,1.411308E-1,7.451113E-4,3.9030142E-2,-1.13897495E-1,8.024714E-2,5.5068843E-2,4.0804338E-2,8.283184E-2,9.837869E-2,-9.712942E-2,1.1822363E-1,8.372297E-2,1.701496E-1,1.3541552E-1,2.7518038E-2,9.958239E-2,8.690288E-2,4.643701E-2,6.26085E-2,1.0143599E-1,2.1628426E-1,1.2217899E-1],"split_indices":[2,3,2,3,2,3,3,0,2,0,2,2,3,2,2,0,6,4,4,2,4,4,4,5,0,2,2,4,2,4,2,5,5,0,5,2,0,0,0,5,5,5,0,5,4,5,4,0,4,6,6,0,6,5,0,0,4,5,5,3,0,4,6,0,0,0,0,0,0,0,0,0,0,0,0,0,0,0,0,0,0,0,0,0,0,0,0,0,0,0,0,0,0,0,0,0,0,0,0,0,0,0,0,0,0,0,0,0,0,0,0,0,0,0,0,0,0,0,0,0,0,0,0,0,0,0,0],"split_type":[0,0,0,0,0,0,0,0,0,0,0,0,0,0,0,0,0,0,0,0,0,0,0,0,0,0,0,0,0,0,0,0,0,0,0,0,0,0,0,0,0,0,0,0,0,0,0,0,0,0,0,0,0,0,0,0,0,0,0,0,0,0,0,0,0,0,0,0,0,0,0,0,0,0,0,0,0,0,0,0,0,0,0,0,0,0,0,0,0,0,0,0,0,0,0,0,0,0,0,0,0,0,0,0,0,0,0,0,0,0,0,0,0,0,0,0,0,0,0,0,0,0,0,0,0,0,0],"sum_hessian":[9.042138E5,2.9696038E5,6.0725344E5,1.531182E5,1.4384216E5,4.620847E5,1.4516875E5,4.096011E4,1.121581E5,3.5181844E4,1.0866031E5,1.4672272E5,3.1536197E5,7.316869E4,7.2000055E4,1.4283788E3,3.953173E4,4.7215164E4,6.494294E4,2.4255117E3,3.2756332E4,7.196532E4,3.6694992E4,7.7555734E4,6.9166984E4,2.5447606E5,6.0885918E4,5.2414137E4,2.0754555E4,6.2642926E4,9.357131E3,1.2337985E3,1.9458034E2,3.9078402E4,4.53325E2,1.4622807E4,3.2592355E4,2.7697764E4,3.7245176E4,2.0492183E3,3.7629355E2,1.1163608E4,2.1592725E4,3.4536637E4,3.7428688E4,2.0640613E4,1.6054378E4,9.766717E3,6.7789016E4,9.66234E3,5.950464E4,1.4030138E5,1.14174695E5,3.924672E4,2.1639197E4,3.4708062E4,1.7706074E4,1.556697E4,5.187585E3,4.332948E4,1.9313441E4,7.3748457E3,1.9822847E3,7.2534485E2,5.0845358E2,4.9615406E1,1.4496494E2,3.5426973E4,3.6514307E3,4.4078E2,1.2545E1,5.429253E2,1.4079882E4,5.5430513E3,2.7049305E4,2.3438674E4,4.2590903E3,1.1206775E4,2.60384E4,2.0394465E3,9.771707E0,3.307555E2,4.5538067E1,3.3328008E3,7.830807E3,1.5829011E4,5.763714E3,2.311607E3,3.222503E4,3.6991562E4,4.371231E2,8.3259985E2,1.9808014E4,1.5850725E4,2.0365321E2,4.4951044E2,9.317207E3,6.758776E4,2.0125694E2,1.3357418E3,8.326599E3,1.7918883E2,5.9325453E4,1.1330969E5,2.6991682E4,1.2449805E3,1.1292972E5,3.8980523E4,2.6619745E2,1.1759777E4,9.879421E3,4.1136816E3,3.059438E4,1.7602383E4,1.036912E2,1.3645899E4,1.9210702E3,1.6168356E3,3.5707495E3,4.2262664E4,1.0668201E3,5.0767505E3,1.423669E4,4.9247163E3,2.4501296E3,1.1714697E2,1.8651377E3],"tree_param":{"num_deleted":"0","num_feature":"7","num_nodes":"127","size_leaf_vector":"1"}},{"base_weights":[2.237476E-4,-1.4122377E-1,1.5715349E-1,-3.6681807E-1,-8.035865E-2,9.5579386E-2,3.447206E-1,-8.569342E-1,-3.2527128E-1,-1.5142211E-1,6.5240845E-2,2.1233295E-1,3.33606E-2,4.5006442E-1,2.3053144E-1,-9.425603E-1,-6.967089E-1,-4.8324174E-1,-2.3901175E-1,2.5172774E-2,-2.397098E-1,-1.231812E-3,1.4419907E-1,1.534995E-1,2.698962E-1,3.4120718E-3,2.968989E-1,3.929254E-1,5.5377114E-1,2.0147622E-1,4.2459214E-1,-9.620529E-1,-8.940004E-1,-6.013284E-1,-9.9896806E-1,-5.219774E-1,3.4243274E-1,-4.071926E-1,-1.6485293E-1,-3.8336206E-2,8.2404494E-2,-4.1680276E-1,-1.8574479E-1,4.418727E-2,-1.5057065E-1,1.599639E-1,-6.445657E-2,3.1307675E-2,1.6854262E-1,2.3415087E-1,3.2876447E-1,-4.817667E-2,8.114506E-2,2.5714368E-1,4.182984E-1,9.8569036E-1,3.895237E-1,5.134318E-1,6.779277E-1,1.5824485E-1,2.9975173E-1,3.620405E-1,5.810809E-1,-1.7517939E-1,-1.9153018E-1,-1.5496139E-1,-1.8853554E-1,-1.09449565E-1,-1.733859E-1,-1.9993895E-1,-1.3759355E-1,-1.5649854E-1,-8.057132E-2,8.624791E-2,-1.8262193E-2,-1.1276926E-1,-6.537233E-2,-9.0773724E-2,-2.5913913E-2,-6.276303E-2,5.827761E-3,2.2089114E-2,-2.3075294E-2,-4.1629974E-2,-1.0514549E-1,-5.4569494E-2,-2.0773603E-2,-3.852525E-3,2.1436948E-2,-2.35074E-2,-8.6117044E-2,3.1653177E-2,-1.3976364E-1,-8.611499E-4,-8.080213E-2,-5.390295E-2,1.702829E-2,9.9591084E-2,3.1607825E-2,9.310187E-3,5.14892E-2,1.7684124E-1,6.2370557E-2,-5.4258113E-3,-5.112716E-2,4.470149E-2,2.4555018E-3,5.2093856E-2,-1.1803806E-2,8.7857105E-2,5.075221E-2,-9.897435E-3,2.2653946E-1,-1.0249067E-1,7.655015E-2,1.0530135E-1,7.350926E-2,1.5573621E-1,1.205108E-1,3.4802694E-2,1.4415092E-4,1.2395961E-1,5.305239E-2,1.15011655E-1,6.379239E-2,1.6723844E-1,1.041064E-1],"categories":[],"categories_nodes":[],"categories_segments":[],"categories_sizes":[],"default_left":[0,0,0,0,0,0,0,0,0,0,0,0,0,0,0,0,0,0,0,0,0,0,0,0,0,0,0,0,0,0,0,0,0,0,0,0,0,0,0,0,0,0,0,0,0,0,0,0,0,0,0,0,0,0,0,0,0,0,0,0,0,0,0,0,0,0,0,0,0,0,0,0,0,0,0,0,0,0,0,0,0,0,0,0,0,0,0,0,0,0,0,0,0,0,0,0,0,0,0,0,0,0,0,0,0,0,0,0,0,0,0,0,0,0,0,0,0,0,0,0,0,0,0,0,0,0,0],"id":8,"left_children":[1,3,5,7,9,11,13,15,17,19,21,23,25,27,29,31,33,35,37,39,41,43,45,47,49,51,53,55,57,59,61,63,65,67,69,71,73,75,77,79,81,83,85,87,89,91,93,95,97,99,101,103,105,107,109,111,113,115,117,119,121,123,125,-1,-1,-1,-1,-1,-1,-1,-1,-1,-1,-1,-1,-1,-1,-1,-1,-1,-1,-1,-1,-1,-1,-1,-1,-1,-1,-1,-1,-1,-1,-1,-1,-1,-1,-1,-1,-1,-1,-1,-1,-1,-1,-1,-1,-1,-1,-1,-1,-1,-1,-1,-1,-1,-1,-1,-1,-1,-1,-1,-1,-1,-1,-1,-1],"loss_changes":[1.9730719E4,6.41875E3,4.866259E3,2.0212451E3,3.809477E3,2.3043489E3,1.2520195E3,1.0411719E2,1.2470498E3,3.8577046E3,6.3389294E2,3.7311182E2,1.6332421E3,3.1988086E2,2.8119678E2,1.9262695E0,7.597815E1,1.0346792E3,7.3825146E2,2.997774E2,1.5758691E3,4.4475537E2,1.8165942E2,1.0011719E2,1.1673755E2,7.453031E2,1.0123584E2,6.876709E1,9.48457E1,1.8429773E2,6.2608032E1,1.8522949E0,8.158569E0,2.1591797E1,2.6869507E0,9.403408E2,6.379422E1,2.2176025E2,3.9328882E2,7.57656E2,2.7026053E2,9.617915E2,9.439385E2,2.1189597E2,1.3271439E2,1.1489258E2,8.122245E1,1.0341589E2,1.0352026E2,1.950774E2,1.0258423E2,4.8623373E2,7.537766E2,5.2399292E1,2.6182068E1,3.7136642E1,1.1201953E2,5.2766846E1,3.1995117E1,9.712891E1,1.2133569E2,3.56886E1,2.2108215E1,0E0,0E0,0E0,0E0,0E0,0E0,0E0,0E0,0E0,0E0,0E0,0E0,0E0,0E0,0E0,0E0,0E0,0E0,0E0,0E0,0E0,0E0,0E0,0E0,0E0,0E0,0E0,0E0,0E0,0E0,0E0,0E0,0E0,0E0,0E0,0E0,0E0,0E0,0E0,0E0,0E0,0E0,0E0,0E0,0E0,0E0,0E0,0E0,0E0,0E0,0E0,0E0,0E0,0E0,0E0,0E0,0E0,0E0,0E0,0E0,0E0,0E0,0E0,0E0],"parents":[2147483647,0,0,1,1,2,2,3,3,4,4,5,5,6,6,7,7,8,8,9,9,10,10,11,11,12,12,13,13,14,14,15,15,16,16,17,17,18,18,19,19,20,20,21,21,22,22,23,23,24,24,25,25,26,26,27,27,28,28,29,29,30,30,31,31,32,32,33,33,34,34,35,35,36,36,37,37,38,38,39,39,40,40,41,41,42,42,43,43,44,44,45,45,46,46,47,47,48,48,49,49,50,50,51,51,52,52,53,53,54,54,55,55,56,56,57,57,58,58,59,59,60,60,61,61,62,62],"right_children":[2,4,6,8,10,12,14,16,18,20,22,24,26,28,30,32,34,36,38,40,42,44,46,48,50,52,54,56,58,60,62,64,66,68,70,72,74,76,78,80,82,84,86,88,90,92,94,96,98,100,102,104,106,108,110,112,114,116,118,120,122,124,126,-1,-1,-1,-1,-1,-1,-1,-1,-1,-1,-1,-1,-1,-1,-1,-1,-1,-1,-1,-1,-1,-1,-1,-1,-1,-1,-1,-1,-1,-1,-1,-1,-1,-1,-1,-1,-1,-1,-1,-1,-1,-1,-1,-1,-1,-1,-1,-1,-1,-1,-1,-1,-1,-1,-1,-1,-1,-1,-1,-1,-1,-1,-1,-1],"split_conditions":[5.045E1,9.43E0,1.519E2,1.1E1,3E0,2E0,2E0,6.372E3,3E0,2E0,2.206E1,8.77E1,3E0,2.4401E2,2.8602E2,5.043E3,3E0,2.3905411E2,3.78E0,2E0,1.837E1,1.726E3,8.718E3,1.123E3,2E0,2E0,8.512E1,2.3416869E2,3.8509E2,2E0,3.8509E2,2E0,5.621E3,9.489E3,8.893E3,2E0,3.287E3,2E0,2.672E3,3.63E2,1.798E3,3.63E2,2E0,2E0,9.489E3,3E0,3.653E3,3.63E2,7.593347E1,8.2E2,1.22869095E2,7.907E3,8.19E2,9.489E3,3.226E3,2.63E2,3.84E2,3.722E3,1.595E3,7.592E3,6.337815E2,1.7349142E3,2.603977E3,-1.7517939E-1,-1.9153018E-1,-1.5496139E-1,-1.8853554E-1,-1.09449565E-1,-1.733859E-1,-1.9993895E-1,-1.3759355E-1,-1.5649854E-1,-8.057132E-2,8.624791E-2,-1.8262193E-2,-1.1276926E-1,-6.537233E-2,-9.0773724E-2,-2.5913913E-2,-6.276303E-2,5.827761E-3,2.2089114E-2,-2.3075294E-2,-4.1629974E-2,-1.0514549E-1,-5.4569494E-2,-2.0773603E-2,-3.852525E-3,2.1436948E-2,-2.35074E-2,-8.6117044E-2,3.1653177E-2,-1.3976364E-1,-8.611499E-4,-8.080213E-2,-5.390295E-2,1.702829E-2,9.9591084E-2,3.1607825E-2,9.310187E-3,5.14892E-2,1.7684124E-1,6.2370557E-2,-5.4258113E-3,-5.112716E-2,4.470149E-2,2.4555018E-3,5.2093856E-2,-1.1803806E-2,8.7857105E-2,5.075221E-2,-9.897435E-3,2.2653946E-1,-1.0249067E-1,7.655015E-2,1.0530135E-1,7.350926E-2,1.5573621E-1,1.205108E-1,3.4802694E-2,1.4415092E-4,1.2395961E-1,5.305239E-2,1.15011655E-1,6.379239E-2,1.6723844E-1,1.041064E-1],"split_indices":[2,2,2,0,3,3,3,5,3,3,2,2,3,2,2,5,3,6,2,4,2,0,5,5,4,4,2,6,2,4,2,3,5,5,5,4,0,4,5,0,0,0,4,4,5,4,0,0,6,0,6,5,0,5,0,0,0,5,5,5,6,6,6,0,0,0,0,0,0,0,0,0,0,0,0,0,0,0,0,0,0,0,0,0,0,0,0,0,0,0,0,0,0,0,0,0,0,0,0,0,0,0,0,0,0,0,0,0,0,0,0,0,0,0,0,0,0,0,0,0,0,0,0,0,0,0,0],"split_type":[0,0,0,0,0,0,0,0,0,0,0,0,0,0,0,0,0,0,0,0,0,0,0,0,0,0,0,0,0,0,0,0,0,0,0,0,0,0,0,0,0,0,0,0,0,0,0,0,0,0,0,0,0,0,0,0,0,0,0,0,0,0,0,0,0,0,0,0,0,0,0,0,0,0,0,0,0,0,0,0,0,0,0,0,0,0,0,0,0,0,0,0,0,0,0,0,0,0,0,0,0,0,0,0,0,0,0,0,0,0,0,0,0,0,0,0,0,0,0,0,0,0,0,0,0,0,0],"sum_hessian":[8.888743E5,4.674958E5,4.213785E5,9.932621E4,3.681696E5,3.1724166E5,1.0413684E5,7.757795E3,9.1568414E4,2.4741664E5,1.2075297E5,1.1028186E5,2.0695981E5,5.4160363E4,4.997648E4,5.047354E3,2.7104407E3,3.2335203E4,5.923321E4,8.2463805E4,1.6495283E5,6.555589E4,5.519708E4,5.4548617E4,5.573324E4,1.858449E5,2.1114912E4,3.4930297E4,1.9230064E4,4.3474664E4,6.5018193E3,3.567445E3,1.479909E3,2.0661E3,6.443406E2,3.0887664E4,1.4475406E3,1.8120666E4,4.1112547E4,3.9082535E4,4.338127E4,3.8519848E4,1.26432984E5,5.0264957E4,1.5290932E4,5.1323273E4,3.8738042E3,5.985275E3,4.856334E4,3.4690125E4,2.1043117E4,1.1170285E5,7.4142055E4,1.5914693E4,5.2002188E3,1.952078E2,3.473509E4,1.4525471E4,4.7045933E3,3.0201146E4,1.3273517E4,4.652546E3,1.8492733E3,9.3443066E2,2.6330144E3,6.4843176E2,8.314773E2,1.8250375E3,2.4106265E2,5.825163E2,6.1824303E1,8.575387E3,2.2312275E4,1.1780387E3,2.6950198E2,5.320908E3,1.2799758E4,3.9215894E3,3.7190957E4,7.5758193E3,3.1506715E4,3.7583973E4,5.797297E3,1.4538878E4,2.3980969E4,5.7618082E4,6.88149E4,2.5497283E4,2.4767672E4,1.3874375E4,1.4165568E3,5.1176516E4,1.4676051E2,3.3104739E3,5.633304E2,9.1928723E2,5.065988E3,8.6582654E2,4.7697516E4,4.843783E3,2.984634E4,3.0152237E2,2.0741594E4,1.0203521E5,9.667637E3,2.3422574E4,5.0719477E4,1.5416288E4,4.9840472E2,4.2985967E3,9.0162213E2,2.811874E1,1.6708905E2,1.3096259E2,3.460413E4,1.2094082E4,2.4313892E3,1.5282391E3,3.1763542E3,2.6726975E4,3.474172E3,9.926415E2,1.2280876E4,6.040206E2,4.0485251E3,2.590042E2,1.5902692E3],"tree_param":{"num_deleted":"0","num_feature":"7","num_nodes":"127","size_leaf_vector":"1"}},{"base_weights":[-9.110008E-4,-1.3005613E-1,1.2788945E-1,-5.6574523E-1,-1.03289045E-1,2.5469735E-1,5.767027E-2,-7.477905E-1,-4.4875532E-1,-1.6096622E-1,-1.0440096E-2,1.8877485E-1,3.983989E-1,1.8564707E-2,1.8938376E-1,-8.1682247E-1,-6.4047086E-1,-6.961419E-1,-3.4888336E-1,-9.092321E-4,-2.5182244E-1,-9.019991E-2,8.8101394E-2,1.369093E-1,2.27287E-1,3.5301086E-1,5.1305604E-1,-1.0823543E-2,2.219007E-1,1.7550015E-1,4.8939812E-1,-8.5974634E-1,-6.445512E-1,-6.1975694E-1,-9.2131996E-1,-9.763624E-1,-6.0926116E-1,-5.1711977E-1,-2.5320965E-1,-1.0615805E-1,3.3851612E-2,-4.38487E-1,-1.8744966E-1,-8.3316535E-2,-9.6432453E-1,9.518916E-2,-3.3872065E-1,1.9314192E-1,1.0370643E-1,2.3268664E-1,-1.19309016E-1,3.764091E-1,2.3410587E-1,5.982901E-1,4.5625356E-1,4.676541E-1,-1.774973E-2,2.3486182E-1,-1.1806379E-1,1.3498871E-1,2.671112E-1,4.1322324E-1,6.7947024E-1,-1.8068373E-1,-1.6174844E-1,-1.9127488E-1,-1.0521892E-1,-1.3012195E-1,-8.423721E-2,-4.226352E-2,-1.8379651E-1,-1.9280596E-1,-0E0,-1.4794973E-1,-9.851642E-2,-7.175322E-2,-1.3816486E-1,2.160555E-1,-5.103562E-2,-3.8529977E-2,-9.663036E-3,-2.520362E-3,1.619969E-2,-1.2297814E-1,-6.336454E-2,-5.443348E-2,-2.13218E-2,-3.0135551E-2,-4.375278E-3,-1.9750744E-1,5.4521286E-3,7.818006E-2,1.7222079E-2,-1.0291557E-1,-1.7664343E-2,-1.5439368E-2,4.1424092E-2,9.2244804E-2,1.765854E-2,3.8870934E-2,5.545022E-2,-7.4592554E-3,-1.6985568E-1,6.728913E-2,8.52198E-2,4.9452525E-2,-5.1789228E-2,1.0642518E-1,1.338016E-1,8.960919E-2,-1.021851E-1,-2.1215815E-2,1.3210997E-1,-1.2994079E-2,7.3533016E-3,4.640064E-2,-1.8849571E-1,-9.82962E-3,-1.3337024E-1,2.4147663E-2,9.049762E-2,1.0009105E-1,4.5750733E-2,5.1721014E-2,1.0166574E-1,1.8702228E-1,1.246819E-1],"categories":[],"categories_nodes":[],"categories_segments":[],"categories_sizes":[],"default_left":[0,0,0,0,0,0,0,0,0,0,0,0,0,0,0,0,0,0,0,0,0,0,0,0,0,0,0,0,0,0,0,0,0,0,0,0,0,0,0,0,0,0,0,0,0,0,0,0,0,0,0,0,0,0,0,0,0,0,0,0,0,0,0,0,0,0,0,0,0,0,0,0,0,0,0,0,0,0,0,0,0,0,0,0,0,0,0,0,0,0,0,0,0,0,0,0,0,0,0,0,0,0,0,0,0,0,0,0,0,0,0,0,0,0,0,0,0,0,0,0,0,0,0,0,0,0,0],"id":9,"left_children":[1,3,5,7,9,11,13,15,17,19,21,23,25,27,29,31,33,35,37,39,41,43,45,47,49,51,53,55,57,59,61,63,65,67,69,71,73,75,77,79,81,83,85,87,89,91,93,95,97,99,101,103,105,107,109,111,113,115,117,119,121,123,125,-1,-1,-1,-1,-1,-1,-1,-1,-1,-1,-1,-1,-1,-1,-1,-1,-1,-1,-1,-1,-1,-1,-1,-1,-1,-1,-1,-1,-1,-1,-1,-1,-1,-1,-1,-1,-1,-1,-1,-1,-1,-1,-1,-1,-1,-1,-1,-1,-1,-1,-1,-1,-1,-1,-1,-1,-1,-1,-1,-1,-1,-1,-1,-1],"loss_changes":[1.4553881E4,5.094516E3,3.9003594E3,5.3706104E2,2.204151E3,1.4783584E3,1.4520514E3,7.127588E1,3.793042E2,3.6919E3,1.239666E3,2.1346411E2,2.5452344E2,1.2992928E3,2.681963E2,4.2352783E1,2.0468262E1,1.05542725E2,1.7588806E2,3.364177E2,1.9454326E3,5.2361664E2,2.1331305E2,8.492511E1,1.15059326E2,9.727637E1,6.6118164E1,6.291821E2,1.2111658E2,2.2859863E2,3.9998596E1,6.9211426E0,4.0515503E1,3.1493408E1,2.9042206E0,1.3576233E1,5.1052612E1,1.1241199E2,8.4116486E1,1.1814755E2,1.5955171E2,9.054214E2,8.638926E2,3.7572998E2,3.434204E1,1.4334424E2,5.3624557E1,9.024512E1,1.3794125E2,1.0368921E2,5.6674553E1,5.4725098E1,5.7476593E1,2.3994385E1,3.1816772E1,3.295581E2,5.089215E2,1.07279785E2,3.799781E1,1.5469836E2,1.4955212E2,3.1994629E1,6.705078E0,0E0,0E0,0E0,0E0,0E0,0E0,0E0,0E0,0E0,0E0,0E0,0E0,0E0,0E0,0E0,0E0,0E0,0E0,0E0,0E0,0E0,0E0,0E0,0E0,0E0,0E0,0E0,0E0,0E0,0E0,0E0,0E0,0E0,0E0,0E0,0E0,0E0,0E0,0E0,0E0,0E0,0E0,0E0,0E0,0E0,0E0,0E0,0E0,0E0,0E0,0E0,0E0,0E0,0E0,0E0,0E0,0E0,0E0,0E0,0E0,0E0,0E0,0E0,0E0],"parents":[2147483647,0,0,1,1,2,2,3,3,4,4,5,5,6,6,7,7,8,8,9,9,10,10,11,11,12,12,13,13,14,14,15,15,16,16,17,17,18,18,19,19,20,20,21,21,22,22,23,23,24,24,25,25,26,26,27,27,28,28,29,29,30,30,31,31,32,32,33,33,34,34,35,35,36,36,37,37,38,38,39,39,40,40,41,41,42,42,43,43,44,44,45,45,46,46,47,47,48,48,49,49,50,50,51,51,52,52,53,53,54,54,55,55,56,56,57,57,58,58,59,59,60,60,61,61,62,62],"right_children":[2,4,6,8,10,12,14,16,18,20,22,24,26,28,30,32,34,36,38,40,42,44,46,48,50,52,54,56,58,60,62,64,66,68,70,72,74,76,78,80,82,84,86,88,90,92,94,96,98,100,102,104,106,108,110,112,114,116,118,120,122,124,126,-1,-1,-1,-1,-1,-1,-1,-1,-1,-1,-1,-1,-1,-1,-1,-1,-1,-1,-1,-1,-1,-1,-1,-1,-1,-1,-1,-1,-1,-1,-1,-1,-1,-1,-1,-1,-1,-1,-1,-1,-1,-1,-1,-1,-1,-1,-1,-1,-1,-1,-1,-1,-1,-1,-1,-1,-1,-1,-1,-1,-1,-1,-1,-1],"split_conditions":[5.985E1,4.01E0,2E0,1.3E0,3E0,1.7697E2,1.8509E2,6.372E3,2E0,2E0,2.217E1,9.511E1,3.1591E2,3E0,4.9747E2,5.1E-1,2.9360547E0,3E0,3E0,2.247E1,2.032E1,1.4367E4,1.1983E4,6.334E1,7.438E3,4.155E3,2.138E3,7.90241E1,9.616E3,2E0,2E0,2.967E3,2E0,5.1E-1,6.528E3,1.9365E4,4.604E3,2.498159E0,1.8E-1,2E0,2E0,2E0,2E0,2E0,1.918E1,3.6469643E1,3.71E1,1.174E3,1.13518135E2,2E0,1.2532E4,2E0,8.476E3,3.8509E2,1.0707E4,2E0,1.0973E2,3E0,1.4367E4,3E0,6.822924E2,4.33379E3,1.231338E3,-1.8068373E-1,-1.6174844E-1,-1.9127488E-1,-1.0521892E-1,-1.3012195E-1,-8.423721E-2,-4.226352E-2,-1.8379651E-1,-1.9280596E-1,-0E0,-1.4794973E-1,-9.851642E-2,-7.175322E-2,-1.3816486E-1,2.160555E-1,-5.103562E-2,-3.8529977E-2,-9.663036E-3,-2.520362E-3,1.619969E-2,-1.2297814E-1,-6.336454E-2,-5.443348E-2,-2.13218E-2,-3.0135551E-2,-4.375278E-3,-1.9750744E-1,5.4521286E-3,7.818006E-2,1.7222079E-2,-1.0291557E-1,-1.7664343E-2,-1.5439368E-2,4.1424092E-2,9.2244804E-2,1.765854E-2,3.8870934E-2,5.545022E-2,-7.4592554E-3,-1.6985568E-1,6.728913E-2,8.52198E-2,4.9452525E-2,-5.1789228E-2,1.0642518E-1,1.338016E-1,8.960919E-2,-1.021851E-1,-2.1215815E-2,1.3210997E-1,-1.2994079E-2,7.3533016E-3,4.640064E-2,-1.8849571E-1,-9.82962E-3,-1.3337024E-1,2.4147663E-2,9.049762E-2,1.0009105E-1,4.5750733E-2,5.1721014E-2,1.0166574E-1,1.8702228E-1,1.246819E-1],"split_indices":[1,1,3,1,3,1,1,5,4,3,1,1,1,3,1,2,6,3,3,1,1,5,5,2,5,5,5,6,5,4,4,5,4,2,5,5,5,6,2,4,4,4,4,4,2,6,1,5,6,4,5,4,5,2,5,4,1,4,5,3,6,6,6,0,0,0,0,0,0,0,0,0,0,0,0,0,0,0,0,0,0,0,0,0,0,0,0,0,0,0,0,0,0,0,0,0,0,0,0,0,0,0,0,0,0,0,0,0,0,0,0,0,0,0,0,0,0,0,0,0,0,0,0,0,0,0,0],"split_type":[0,0,0,0,0,0,0,0,0,0,0,0,0,0,0,0,0,0,0,0,0,0,0,0,0,0,0,0,0,0,0,0,0,0,0,0,0,0,0,0,0,0,0,0,0,0,0,0,0,0,0,0,0,0,0,0,0,0,0,0,0,0,0,0,0,0,0,0,0,0,0,0,0,0,0,0,0,0,0,0,0,0,0,0,0,0,0,0,0,0,0,0,0,0,0,0,0,0,0,0,0,0,0,0,0,0,0,0,0,0,0,0,0,0,0,0,0,0,0,0,0,0,0,0,0,0,0],"sum_hessian":[8.749469E5,4.3689166E5,4.380552E5,2.5283783E4,4.1160788E5,1.561147E5,2.8194047E5,9.885516E3,1.5398268E4,2.5388628E5,1.5772161E5,1.0702604E5,4.9088668E4,2.174017E5,6.453877E4,6.00472E3,3.880795E3,4.423463E3,1.0974805E4,9.193632E4,1.6194997E5,8.717189E4,7.054971E4,4.561785E4,6.1408188E4,3.517701E4,1.3911658E4,1.899467E5,2.7455E4,6.1689203E4,2.8495647E3,4.798022E3,1.2066984E3,3.6218645E3,2.589302E2,1.040668E3,3.3827952E3,3.9730813E3,7.0017236E3,2.2829748E4,6.910658E4,4.1522867E4,1.2042709E5,8.649354E4,6.783536E2,6.940031E4,1.1493945E3,1.6924357E4,2.8693492E4,6.046881E4,9.3937836E2,2.9384746E4,5.7922637E3,5.5516914E3,8.359967E3,2.7071768E3,1.8723953E5,2.6449299E4,1.005701E3,4.278254E4,1.8906666E4,2.0409806E3,8.0858417E2,1.4208738E3,3.3771482E3,2.797777E2,9.269207E2,2.8720876E3,7.4977704E2,9.542756E0,2.4938747E2,1.0261283E3,1.4539647E1,1.3712911E3,2.011504E3,2.2453132E3,1.727768E3,4.3129723E1,6.9585938E3,8.703128E3,1.412662E4,3.545647E4,3.365011E4,1.5344683E4,2.6178184E4,5.522869E4,6.5198402E4,3.9787715E4,4.6705824E4,6.466268E2,3.1726847E1,1.4954587E3,6.790486E4,6.485144E2,5.0088016E2,1.1301335E3,1.5794224E4,9.731145E2,2.7720379E4,3.6963332E4,2.3505479E4,8.506423E2,8.873606E1,1.9530701E4,9.854046E3,5.573839E3,2.1842523E2,3.5163174E3,2.0353739E3,8.329087E3,3.0879442E1,7.236908E2,1.983486E3,9.9485086E4,8.775444E4,2.6377258E4,7.2041794E1,9.013759E2,1.0432504E2,4.1404855E4,1.3776854E3,2.1770852E3,1.672958E4,8.710654E2,1.1699152E3,9.199227E1,7.165919E2],"tree_param":{"num_deleted":"0","num_feature":"7","num_nodes":"127","size_leaf_vector":"1"}},{"base_weights":[-1.5274287E-3,-1.6055726E-1,6.555849E-2,-6.727155E-1,-1.4436641E-1,2.7910843E-2,2.3103045E-1,-6.8660146E-1,9.812776E-1,-2.293424E-1,-6.718475E-2,1.0170066E-1,-5.907326E-3,3.1841186E-1,1.463433E-1,-7.655457E-1,-5.082936E-1,3.2338926E-1,-1.9370183E-1,-3.793655E-2,-3.0684972E-1,-1.9007921E-1,-3.5654742E-4,5.9449922E-2,1.6882087E-1,-4.025431E-2,1.3633929E-1,2.7629244E-1,4.43862E-1,1.3037853E-1,3.7848058E-1,-8.1494135E-1,-5.2808505E-1,-5.401418E-1,-3.975332E-2,-4.4205103E-2,5.293157E-1,-2.1477447E-1,-5.0220454E-1,-5.5532044E-1,-1.6653974E-1,3.2715913E-2,-1.10687815E-1,-1.9089809E-1,6.7250624E-2,1.7147371E-1,-6.0425603E-1,-7.971664E-2,2.7830433E-2,1.1694591E-1,2.6725888E-1,2.9650262E-1,1.6591911E-1,4.016871E-1,5.486654E-1,2.8640136E-1,1.1091009E-1,8.8117766E-1,3.5750502E-1,-1.7448808E-1,-1.4884661E-1,-8.628996E-2,-1.8200599E-1,-1.2317287E-1,-7.9320036E-2,-2.5364816E-2,1.1601797E-1,-3.4441273E-3,-4.8048772E-2,1.0858937E-3,1.0684532E-1,-7.304681E-2,-2.3561055E-2,1.4272489E-2,-1.0248181E-1,-1.5293121E-1,-6.2358305E-2,-2.4453612E-2,-6.745145E-2,-4.1984268E-2,8.970175E-3,-3.5959918E-2,-2.5230655E-3,-8.031038E-2,-6.3877663E-4,1.3499906E-2,-1.0608942E-1,3.8733575E-2,2.0206252E-2,-9.53095E-2,-3.5534066E-1,-9.643071E-3,-4.8096918E-2,1.0726975E-1,3.8009258E-3,2.6018135E-2,-6.2869038E-3,6.135777E-2,3.0088546E-2,3.394645E-2,6.223637E-2,1.1064679E-1,2.9426102E-2,8.187086E-2,4.813238E-2,1.2844731E-1,9.485404E-2,-2.3236297E-2,6.2174134E-2,2.218193E-2,-7.716346E-2,1.3832588E-2,1.9260056E-1,2.3073241E-2,7.37618E-2],"categories":[],"categories_nodes":[],"categories_segments":[],"categories_sizes":[],"default_left":[0,0,0,0,0,0,0,0,0,0,0,0,0,0,0,0,0,0,0,0,0,0,0,0,0,0,0,0,0,0,0,0,0,0,0,0,0,0,0,0,0,0,0,0,0,0,0,0,0,0,0,0,0,0,0,0,0,0,0,0,0,0,0,0,0,0,0,0,0,0,0,0,0,0,0,0,0,0,0,0,0,0,0,0,0,0,0,0,0,0,0,0,0,0,0,0,0,0,0,0,0,0,0,0,0,0,0,0,0,0,0,0,0,0,0],"id":10,"left_children":[1,3,5,7,9,11,13,15,17,19,21,23,25,27,29,31,33,-1,-1,35,37,39,41,43,45,47,49,51,53,55,57,59,61,63,65,67,69,71,73,75,77,79,81,83,85,87,89,91,93,95,97,99,101,103,105,107,109,111,113,-1,-1,-1,-1,-1,-1,-1,-1,-1,-1,-1,-1,-1,-1,-1,-1,-1,-1,-1,-1,-1,-1,-1,-1,-1,-1,-1,-1,-1,-1,-1,-1,-1,-1,-1,-1,-1,-1,-1,-1,-1,-1,-1,-1,-1,-1,-1,-1,-1,-1,-1,-1,-1,-1,-1,-1],"loss_changes":[9.200187E3,2.1208335E3,3.7780544E3,1.809961E2,1.6263896E3,1.2330417E3,8.314155E2,1.0783472E2,9.1325E1,1.7509238E3,1.0673253E3,4.4018787E2,1.6552614E3,2.9155957E2,2.1112793E2,6.140674E1,3.5263733E1,0E0,0E0,1.2068477E2,1.5105239E3,3.9290222E2,3.0729602E2,1.8605688E2,1.2287756E2,7.333048E2,1.6696753E2,9.1979004E1,6.0351807E1,1.6193188E2,3.724585E1,1.586084E1,3.0567352E1,2.6259766E1,8.749987E0,1.8056232E2,3.3340988E0,8.581438E2,3.7168164E2,1.4845087E2,3.1651025E2,2.1444067E2,1.4022287E2,1.19252914E2,1.1640613E2,1.1067041E2,2.5438614E1,8.725327E2,4.349781E2,1.4261798E2,4.534442E1,9.8113525E1,3.7633698E1,2.7958862E1,2.5786377E1,7.906583E1,7.166388E1,1.1708954E1,1.744806E1,0E0,0E0,0E0,0E0,0E0,0E0,0E0,0E0,0E0,0E0,0E0,0E0,0E0,0E0,0E0,0E0,0E0,0E0,0E0,0E0,0E0,0E0,0E0,0E0,0E0,0E0,0E0,0E0,0E0,0E0,0E0,0E0,0E0,0E0,0E0,0E0,0E0,0E0,0E0,0E0,0E0,0E0,0E0,0E0,0E0,0E0,0E0,0E0,0E0,0E0,0E0,0E0,0E0,0E0,0E0,0E0],"parents":[2147483647,0,0,1,1,2,2,3,3,4,4,5,5,6,6,7,7,8,8,9,9,10,10,11,11,12,12,13,13,14,14,15,15,16,16,19,19,20,20,21,21,22,22,23,23,24,24,25,25,26,26,27,27,28,28,29,29,30,30,31,31,32,32,33,33,34,34,35,35,36,36,37,37,38,38,39,39,40,40,41,41,42,42,43,43,44,44,45,45,46,46,47,47,48,48,49,49,50,50,51,51,52,52,53,53,54,54,55,55,56,56,57,57,58,58],"right_children":[2,4,6,8,10,12,14,16,18,20,22,24,26,28,30,32,34,-1,-1,36,38,40,42,44,46,48,50,52,54,56,58,60,62,64,66,68,70,72,74,76,78,80,82,84,86,88,90,92,94,96,98,100,102,104,106,108,110,112,114,-1,-1,-1,-1,-1,-1,-1,-1,-1,-1,-1,-1,-1,-1,-1,-1,-1,-1,-1,-1,-1,-1,-1,-1,-1,-1,-1,-1,-1,-1,-1,-1,-1,-1,-1,-1,-1,-1,-1,-1,-1,-1,-1,-1,-1,-1,-1,-1,-1,-1,-1,-1,-1,-1,-1,-1],"split_conditions":[2.457E1,2.8808767E-1,1.416E2,4.93E2,3E0,2E0,2E0,6.909E3,1.0849315E-3,2E0,7.96E0,7.695E1,3E0,2.6171E2,3.1969E2,5.1E-1,1.35E0,3.2338926E-1,-1.9370183E-1,9.008507E2,6.16E2,1.95E3,1.726E3,2.22E2,3E0,7.803E1,7.068E1,4.155E3,3.8509E2,9.99E2,1.1077306E3,3.671E3,1.8E0,8.257E3,1.04E4,1.446E3,8.1E2,2E0,5.1E-1,2E0,9.64E2,2.02E3,1.758E1,2E0,3E0,2.123E3,1.04E4,1.903E3,1.6616454E2,3.405E3,2.646E3,1.05E3,6.496265E2,4.217E3,1.743E3,1.28E3,1.1445E4,3.68E2,1.558E3,-1.7448808E-1,-1.4884661E-1,-8.628996E-2,-1.8200599E-1,-1.2317287E-1,-7.9320036E-2,-2.5364816E-2,1.1601797E-1,-3.4441273E-3,-4.8048772E-2,1.0858937E-3,1.0684532E-1,-7.304681E-2,-2.3561055E-2,1.4272489E-2,-1.0248181E-1,-1.5293121E-1,-6.2358305E-2,-2.4453612E-2,-6.745145E-2,-4.1984268E-2,8.970175E-3,-3.5959918E-2,-2.5230655E-3,-8.031038E-2,-6.3877663E-4,1.3499906E-2,-1.0608942E-1,3.8733575E-2,2.0206252E-2,-9.53095E-2,-3.5534066E-1,-9.643071E-3,-4.8096918E-2,1.0726975E-1,3.8009258E-3,2.6018135E-2,-6.2869038E-3,6.135777E-2,3.0088546E-2,3.394645E-2,6.223637E-2,1.1064679E-1,2.9426102E-2,8.187086E-2,4.813238E-2,1.2844731E-1,9.485404E-2,-2.3236297E-2,6.2174134E-2,2.218193E-2,-7.716346E-2,1.3832588E-2,1.9260056E-1,2.3073241E-2,7.37618E-2],"split_indices":[2,6,2,0,3,3,3,5,6,3,2,2,3,2,2,2,2,0,0,6,0,5,0,0,4,2,2,5,2,0,6,5,2,5,5,0,5,4,2,4,0,5,2,4,4,0,5,0,6,0,0,0,6,5,5,5,5,0,5,0,0,0,0,0,0,0,0,0,0,0,0,0,0,0,0,0,0,0,0,0,0,0,0,0,0,0,0,0,0,0,0,0,0,0,0,0,0,0,0,0,0,0,0,0,0,0,0,0,0,0,0,0,0,0,0],"split_type":[0,0,0,0,0,0,0,0,0,0,0,0,0,0,0,0,0,0,0,0,0,0,0,0,0,0,0,0,0,0,0,0,0,0,0,0,0,0,0,0,0,0,0,0,0,0,0,0,0,0,0,0,0,0,0,0,0,0,0,0,0,0,0,0,0,0,0,0,0,0,0,0,0,0,0,0,0,0,0,0,0,0,0,0,0,0,0,0,0,0,0,0,0,0,0,0,0,0,0,0,0,0,0,0,0,0,0,0,0,0,0,0,0,0,0],"sum_hessian":[8.6234625E5,2.5585061E5,6.064956E5,7.8367905E3,2.4801383E5,4.9408862E5,1.12407016E5,7.7729956E3,6.379468E1,1.1804023E5,1.299736E5,1.5528381E5,3.3880478E5,5.5316867E4,5.7090145E4,5.380838E3,2.3921577E3,4.7957672E1,1.5837008E1,3.4025516E4,8.401471E4,4.577714E4,8.419646E4,9.530529E4,5.9978527E4,2.7291328E5,6.58915E4,4.142124E4,1.3895629E4,5.3422016E4,3.6681304E3,4.448221E3,9.326168E2,2.238203E3,1.5395476E2,3.365648E4,3.6903488E2,5.710649E4,2.6908223E4,2.7674026E3,4.300974E4,6.477455E4,1.9421908E4,2.875868E3,9.2429414E4,5.9775707E4,2.0282072E2,1.7277958E5,1.0013372E5,5.7397895E4,8.493607E3,3.5002492E4,6.4187456E3,9.919298E3,3.9763308E3,5.9196694E3,4.7502348E4,1.4266376E2,3.5254666E3,1.6965306E3,2.7516907E3,7.757377E2,1.5687917E2,1.3138372E3,9.2436584E2,1.3698405E2,1.6970703E1,2.976369E4,3.8927927E3,1.4511587E1,3.545233E2,2.1078377E4,3.602811E4,1.0748291E3,2.5833393E4,1.3957343E3,1.3716683E3,3.50306E4,7.9791357E3,3.2988108E3,6.147574E4,1.1051509E4,8.3704E3,1.31629E3,1.559578E3,9.212161E4,3.078045E2,4.254869E4,1.7227018E4,1.8815112E2,1.4669606E1,1.4635184E5,2.6427725E4,1.564136E3,9.8569586E4,5.1643875E4,5.754022E3,5.959412E3,2.5341953E3,5.560019E3,2.9442475E4,2.242708E2,6.1944746E3,8.843433E3,1.0758658E3,1.4109803E3,2.5653503E3,4.41084E2,5.4785854E3,4.7227582E4,2.7476465E2,1.7872484E1,1.24791275E2,2.9111826E2,3.2343481E3],"tree_param":{"num_deleted":"0","num_feature":"7","num_nodes":"115","size_leaf_vector":"1"}},{"base_weights":[-1.135958E-3,-1.3484319E-1,6.2810875E-2,-4.6643668E-1,-1.0586951E-1,3.2565184E-2,1.9968168E-1,-6.6774833E-1,-3.751099E-1,-9.374513E-2,-6.010627E-1,1.0601349E-1,-2.2230707E-3,3.0137682E-1,1.33154E-1,-7.8155625E-1,-5.8591396E-1,-6.1094695E-1,-2.886908E-1,-1.598518E-1,-2.2645524E-2,-5.166426E-1,-8.667115E-1,5.804132E-2,1.4567065E-1,-2.9401444E-2,1.13514826E-1,2.7149084E-1,4.300911E-1,1.0648426E-1,2.5180373E-1,-7.989149E-1,-1.6157205E-1,-6.4598674E-1,-4.9043447E-1,-9.133086E-1,-5.2496946E-1,-1.842436E-1,-4.4905445E-1,-4.1710492E-2,-2.2836985E-1,-1.3530418E-1,2.9947045E-3,-6.5526986E-1,-3.331661E-1,-1.0689415E0,-7.0264685E-1,6.409871E-2,-1.8530044E-1,1.6469666E-1,5.1780477E-2,-7.5905934E-2,2.528502E-2,1.5483092E-1,4.9689166E-2,2.7333543E-1,-1.2866306E0,4.663492E-1,2.857114E-1,2.2559986E-1,8.664849E-2,1.9390565E-1,3.9972034E-1,3.8840817E-3,-1.5643074E-1,2.7706185E-1,-1.0062842E-1,-1.3436046E-1,-9.805478E-2,-8.099616E-2,-1.4657661E-1,-8.549032E-2,-1.8496598E-1,-1.5047792E-1,-8.264916E-2,-1.1816639E-1,-2.8795734E-2,-1.3040437E-1,-6.8187885E-2,-3.2573186E-2,-3.0867616E-3,-3.0690346E-2,-7.6418035E-2,-4.3843836E-2,-1.9945407E-3,-9.333971E-3,8.359389E-3,-7.461133E-2,-1.5274356E-1,-5.059047E-2,-1.2228652E-1,-2.1755226E-1,-1.6740885E-1,-1.4072774E-1,5.1664807E-2,5.5564973E-3,2.0135172E-2,-2.9374402E-2,-1.0916182E-1,2.5130875E-2,4.1508097E-2,3.784891E-2,1.55308E-3,-8.482577E-3,-4.1472793E-2,3.247834E-2,-4.6165995E-3,2.6206257E-2,5.4481603E-2,3.9683497E-3,3.7282165E-2,6.256278E-2,4.487252E-2,-1.09256394E-1,-3.0628717E-1,-9.056411E-2,9.194442E-2,5.8609407E-2,-1.5291439E-1,2.3279786E-2,5.897598E-2,2.0491086E-2,-1.6219333E-2,3.054328E-2,6.205602E-2,4.6687488E-2,8.9655876E-2],"categories":[],"categories_nodes":[],"categories_segments":[],"categories_sizes":[],"default_left":[0,0,0,0,0,0,0,0,0,0,0,0,0,0,0,0,0,0,0,0,0,0,0,0,0,0,0,0,0,0,0,0,0,0,0,0,0,0,0,0,0,0,0,0,0,0,0,0,0,0,0,0,0,0,0,0,0,0,0,0,0,0,0,0,0,0,0,0,0,0,0,0,0,0,0,0,0,0,0,0,0,0,0,0,0,0,0,0,0,0,0,0,0,0,0,0,0,0,0,0,0,0,0,0,0,0,0,0,0,0,0,0,0,0,0,0,0,0,0,0,0,0,0,0,0,0,0],"id":11,"left_children":[1,3,5,7,9,11,13,15,17,19,21,23,25,27,29,31,33,35,37,39,41,43,45,47,49,51,53,55,57,59,61,63,65,67,69,71,73,75,77,79,81,83,85,87,89,91,93,95,97,99,101,103,105,107,109,111,113,115,117,119,121,123,125,-1,-1,-1,-1,-1,-1,-1,-1,-1,-1,-1,-1,-1,-1,-1,-1,-1,-1,-1,-1,-1,-1,-1,-1,-1,-1,-1,-1,-1,-1,-1,-1,-1,-1,-1,-1,-1,-1,-1,-1,-1,-1,-1,-1,-1,-1,-1,-1,-1,-1,-1,-1,-1,-1,-1,-1,-1,-1,-1,-1,-1,-1,-1,-1],"loss_changes":[7.2930977E3,2.6508262E3,2.388488E3,4.0645605E2,1.5231528E3,1.2075928E3,7.061084E2,6.2607666E1,3.10042E2,1.164241E3,1.3419629E2,2.8881738E2,1.0086841E3,1.5812573E2,1.9947583E2,3.0109253E1,2.1753906E1,1.0439807E2,1.8653857E2,1.0389011E3,3.4489624E2,1.16099E2,4.5760742E1,1.0127771E2,1.4835815E2,6.6051965E2,1.6064423E2,9.6220215E1,3.9913452E1,1.2155414E2,9.86109E1,1.0372314E1,4.66806E1,1.3942383E1,2.928543E1,1.3807617E1,7.802197E1,1.0341884E2,9.491272E1,1.5285963E2,9.426787E2,2.4843845E2,1.9766899E2,9.062305E1,4.2101578E1,3.3999023E0,1.6305908E1,9.3639984E1,2.0906666E1,1.1908862E2,8.739348E1,6.220722E2,8.272456E2,9.336865E1,9.9436714E1,6.832153E1,5.09877E0,3.349524E1,2.5615662E1,5.9850494E1,1.3944656E2,3.809262E1,3.084082E1,0E0,0E0,0E0,0E0,0E0,0E0,0E0,0E0,0E0,0E0,0E0,0E0,0E0,0E0,0E0,0E0,0E0,0E0,0E0,0E0,0E0,0E0,0E0,0E0,0E0,0E0,0E0,0E0,0E0,0E0,0E0,0E0,0E0,0E0,0E0,0E0,0E0,0E0,0E0,0E0,0E0,0E0,0E0,0E0,0E0,0E0,0E0,0E0,0E0,0E0,0E0,0E0,0E0,0E0,0E0,0E0,0E0,0E0,0E0,0E0,0E0,0E0,0E0,0E0],"parents":[2147483647,0,0,1,1,2,2,3,3,4,4,5,5,6,6,7,7,8,8,9,9,10,10,11,11,12,12,13,13,14,14,15,15,16,16,17,17,18,18,19,19,20,20,21,21,22,22,23,23,24,24,25,25,26,26,27,27,28,28,29,29,30,30,31,31,32,32,33,33,34,34,35,35,36,36,37,37,38,38,39,39,40,40,41,41,42,42,43,43,44,44,45,45,46,46,47,47,48,48,49,49,50,50,51,51,52,52,53,53,54,54,55,55,56,56,57,57,58,58,59,59,60,60,61,61,62,62],"right_children":[2,4,6,8,10,12,14,16,18,20,22,24,26,28,30,32,34,36,38,40,42,44,46,48,50,52,54,56,58,60,62,64,66,68,70,72,74,76,78,80,82,84,86,88,90,92,94,96,98,100,102,104,106,108,110,112,114,116,118,120,122,124,126,-1,-1,-1,-1,-1,-1,-1,-1,-1,-1,-1,-1,-1,-1,-1,-1,-1,-1,-1,-1,-1,-1,-1,-1,-1,-1,-1,-1,-1,-1,-1,-1,-1,-1,-1,-1,-1,-1,-1,-1,-1,-1,-1,-1,-1,-1,-1,-1,-1,-1,-1,-1,-1,-1,-1,-1,-1,-1,-1,-1,-1,-1,-1,-1],"split_conditions":[3.48E1,4.01E0,1.8509E2,9.6E-1,1.1445E4,2E0,2E0,5.043E3,2E0,3E0,1.6253E4,7.737E1,3E0,3.6943E2,3.3906E2,1.747E3,7.592E3,3E0,3.34E2,2E0,3.525E3,3E0,1.48E1,3.493E3,2.679E3,2E0,2.028E3,1.3209E4,3.637E3,1.098E3,2E0,2.51E2,1.0849315E-3,1.1E1,9.784E3,2E0,2.2E0,1.839E3,3E0,1.595E3,5.84E2,2E0,1.425E1,7.3E2,2.646E3,9.076603E1,5.599725E2,2E0,7.43E1,2E0,2.376E3,6.528E3,5.52E2,8.994E1,1.0062E2,2.52E3,1.231338E3,4.65E2,9.784E3,2E0,8.14E3,4.9747E2,3.6943E2,3.8840817E-3,-1.5643074E-1,2.7706185E-1,-1.0062842E-1,-1.3436046E-1,-9.805478E-2,-8.099616E-2,-1.4657661E-1,-8.549032E-2,-1.8496598E-1,-1.5047792E-1,-8.264916E-2,-1.1816639E-1,-2.8795734E-2,-1.3040437E-1,-6.8187885E-2,-3.2573186E-2,-3.0867616E-3,-3.0690346E-2,-7.6418035E-2,-4.3843836E-2,-1.9945407E-3,-9.333971E-3,8.359389E-3,-7.461133E-2,-1.5274356E-1,-5.059047E-2,-1.2228652E-1,-2.1755226E-1,-1.6740885E-1,-1.4072774E-1,5.1664807E-2,5.5564973E-3,2.0135172E-2,-2.9374402E-2,-1.0916182E-1,2.5130875E-2,4.1508097E-2,3.784891E-2,1.55308E-3,-8.482577E-3,-4.1472793E-2,3.247834E-2,-4.6165995E-3,2.6206257E-2,5.4481603E-2,3.9683497E-3,3.7282165E-2,6.256278E-2,4.487252E-2,-1.09256394E-1,-3.0628717E-1,-9.056411E-2,9.194442E-2,5.8609407E-2,-1.5291439E-1,2.3279786E-2,5.897598E-2,2.0491086E-2,-1.6219333E-2,3.054328E-2,6.205602E-2,4.6687488E-2,8.9655876E-2],"split_indices":[1,1,1,1,5,3,3,5,4,3,5,1,3,1,1,0,5,3,0,3,5,3,1,0,0,4,0,5,5,0,4,5,6,0,5,3,1,5,3,5,0,4,1,0,0,6,6,4,1,4,5,5,0,1,1,5,6,0,5,4,5,1,1,0,0,0,0,0,0,0,0,0,0,0,0,0,0,0,0,0,0,0,0,0,0,0,0,0,0,0,0,0,0,0,0,0,0,0,0,0,0,0,0,0,0,0,0,0,0,0,0,0,0,0,0,0,0,0,0,0,0,0,0,0,0,0,0],"split_type":[0,0,0,0,0,0,0,0,0,0,0,0,0,0,0,0,0,0,0,0,0,0,0,0,0,0,0,0,0,0,0,0,0,0,0,0,0,0,0,0,0,0,0,0,0,0,0,0,0,0,0,0,0,0,0,0,0,0,0,0,0,0,0,0,0,0,0,0,0,0,0,0,0,0,0,0,0,0,0,0,0,0,0,0,0,0,0,0,0,0,0,0,0,0,0,0,0,0,0,0,0,0,0,0,0,0,0,0,0,0,0,0,0,0,0,0,0,0,0,0,0,0,0,0,0,0,0],"sum_hessian":[8.52969E5,2.7596328E5,5.770057E5,2.2171121E4,2.5379217E5,4.7258206E5,1.04423625E5,6.913245E3,1.5257876E4,2.4773027E5,6.061914E3,1.5189789E5,3.2068416E5,4.1290035E4,6.3133594E4,2.8817407E3,4.0315046E3,4.0865872E3,1.1171289E4,1.2836615E5,1.1936411E5,4.606052E3,1.4558625E3,6.87525E4,8.314539E4,2.5970583E5,6.097834E4,3.3518508E4,7.771528E3,5.1554715E4,1.1578878E4,2.8016233E3,8.011757E1,2.4637126E3,1.5677919E3,8.9916235E2,3.1874248E3,6.7701074E3,4.4011816E3,4.712497E4,8.124119E4,2.213363E4,9.723048E4,2.618877E3,1.9871747E3,6.4577893E2,8.1008356E2,6.708681E4,1.6656882E3,6.912813E4,1.4017262E4,1.403592E5,1.1934662E5,3.700811E4,2.397023E4,3.348078E4,3.772667E1,6.204467E3,1.5670609E3,7.351789E3,4.4202926E4,8.32804E3,3.2508389E3,1.3579304E1,2.788044E3,1.3332397E1,6.678517E1,1.8748579E3,5.8885486E2,1.2262638E3,3.4152805E2,6.708923E1,8.320731E2,9.1544196E2,2.271983E3,5.3322754E2,6.23688E3,1.3579381E3,3.043244E3,8.0436904E3,3.9081277E4,5.6749973E4,2.449121E4,1.2878533E4,9.255099E3,4.2724055E4,5.450642E4,8.4600934E2,1.7728677E3,1.5954661E3,3.9170862E2,5.1625586E2,1.2952307E2,7.9493256E2,1.5151054E1,3.5218652E4,3.1868158E4,1.5295055E3,1.3618266E2,3.9819727E4,2.9308404E4,3.2897002E3,1.0727562E4,1.13556016E5,2.6803191E4,3.0700088E4,8.864652E4,3.1846928E4,5.1611816E3,1.9868059E4,4.1021724E3,1.5816213E4,1.7664568E4,1.2847726E1,2.4878944E1,3.6290283E1,6.168177E3,1.5470223E3,2.0038544E1,3.1027432E3,4.249046E3,3.985466E4,4.3482656E3,6.426735E3,1.9013047E3,8.98725E2,2.3521138E3],"tree_param":{"num_deleted":"0","num_feature":"7","num_nodes":"127","size_leaf_vector":"1"}},{"base_weights":[-2.3878309E-4,-7.668728E-2,7.8355566E-2,-4.426351E-1,-6.2142808E-2,1.5228869E-1,3.934349E-2,-6.1418825E-1,-3.6207652E-1,-5.3340185E-2,-4.2782113E-1,1.16618834E-1,2.653093E-1,4.736208E-2,-2.0233023E-1,-7.069068E-1,-4.7256973E-1,-5.55296E-1,-2.7398178E-1,-4.98498E-2,-7.2342116E-1,-3.3470055E-1,-6.240758E-1,1.1953507E-1,-2.1787187E-1,2.3712221E-1,3.7054035E-1,1.4478039E-2,9.893372E-2,-1.5327443E-1,-5.598153E-1,-8.0135137E-1,-6.6755337E-1,-3.1000245E-1,-8.464228E-1,-3.3856368E-1,-7.388077E-1,-5.046016E-1,-1.8604174E-1,-9.8119184E-2,-6.695367E-3,-8.612574E-1,-6.4584064E-1,-4.6880287E-1,-1.9551094E-1,-8.978729E-1,-4.869337E-1,9.347492E-2,1.5726739E-1,4.001536E-1,-2.7637815E-1,2.3923074E-1,-8.0385816E-1,4.9384928E-1,3.201353E-1,-5.795011E-4,1.395769E-1,3.8144654E-1,8.591977E-2,3.6478233E-1,-1.7883816E-1,-4.4678915E-1,-8.7453604E-1,1.108587E-2,-1.587122E-1,-1.2634568E-1,-1.8949495E-1,-5.038035E-2,-1.4216699E-1,-1.7224565E-1,-1.036556E-1,-9.1453284E-2,-1.2415027E-3,-5.325728E-2,-1.6268297E-1,-1.5568168E-1,-7.487134E-2,-1.2643102E-2,-6.0114462E-2,-4.22379E-2,-1.1964049E-2,-1.5618565E-2,1.9197993E-3,-1.5931405E-1,-2.969574E-1,-1.0600953E-1,-1.8025771E-1,-1.2772882E-1,-6.284221E-2,-3.1840503E-2,-1.2599288E-1,-6.52237E-2,-1.8002565E-1,-9.990094E-2,1.1518604E-1,3.5678688E-3,2.4518233E-2,8.648079E-2,2.9151527E-2,-6.4730193E-3,1.841798E-1,-1.8151635E-1,-4.526346E-2,4.0282115E-2,5.9675053E-2,-2.298929E-1,-0E0,6.807192E-2,1.0823693E-1,6.501111E-2,-7.0200954E-3,-1.1563574E-2,8.528286E-3,-1.3193794E-2,3.1248434E-2,4.4112626E-2,1.09296694E-1,1.329963E-2,4.919529E-2,-1.860214E-1,8.234424E-2,-5.0843406E-2,-1.8562403E-2,-6.367792E-2,-1.3506341E-1,-8.892299E-2,-2.0247445E-1],"categories":[],"categories_nodes":[],"categories_segments":[],"categories_sizes":[],"default_left":[0,0,0,0,0,0,0,0,0,0,0,0,0,0,0,0,0,0,0,0,0,0,0,0,0,0,0,0,0,0,0,0,0,0,0,0,0,0,0,0,0,0,0,0,0,0,0,0,0,0,0,0,0,0,0,0,0,0,0,0,0,0,0,0,0,0,0,0,0,0,0,0,0,0,0,0,0,0,0,0,0,0,0,0,0,0,0,0,0,0,0,0,0,0,0,0,0,0,0,0,0,0,0,0,0,0,0,0,0,0,0,0,0,0,0,0,0,0,0,0,0,0,0,0,0,0,0],"id":12,"left_children":[1,3,5,7,9,11,13,15,17,19,21,23,25,27,29,31,33,35,37,39,41,43,45,47,49,51,53,55,57,59,61,63,65,67,69,71,73,75,77,79,81,83,85,87,89,91,93,95,97,99,101,103,105,107,109,111,113,115,117,119,121,123,125,-1,-1,-1,-1,-1,-1,-1,-1,-1,-1,-1,-1,-1,-1,-1,-1,-1,-1,-1,-1,-1,-1,-1,-1,-1,-1,-1,-1,-1,-1,-1,-1,-1,-1,-1,-1,-1,-1,-1,-1,-1,-1,-1,-1,-1,-1,-1,-1,-1,-1,-1,-1,-1,-1,-1,-1,-1,-1,-1,-1,-1,-1,-1,-1],"loss_changes":[5.076721E3,2.279321E3,1.2014883E3,2.2514331E2,1.3256495E3,5.79771E2,5.284083E2,6.717395E1,1.8886621E2,9.402229E2,1.7586548E2,1.0667261E2,1.0177637E2,4.4757513E2,1.5287659E2,9.709717E0,1.24868774E2,1.3744214E2,1.5472687E2,8.335326E2,2.0209717E1,1.220296E2,1.1503943E2,1.06423706E2,3.4232895E1,5.9699463E1,4.4398987E1,3.037489E2,3.774524E2,1.0199754E2,3.585141E1,1.1235046E1,1.0612976E1,3.0227402E1,5.6215515E0,6.942531E1,8.339783E1,7.3407715E1,8.2147385E1,8.227656E2,2.5710495E2,1.7411682E1,3.6203674E1,9.029242E1,4.5932983E1,1.394397E1,5.8730713E1,1.5616986E2,9.58739E1,1.993014E1,2.3696976E1,5.8673706E1,1.651936E1,1.781189E1,2.5427063E1,3.7530966E2,7.501935E1,1.25159485E2,2.8850348E2,2.799538E1,5.0127563E1,2.194516E1,1.7053009E1,0E0,0E0,0E0,0E0,0E0,0E0,0E0,0E0,0E0,0E0,0E0,0E0,0E0,0E0,0E0,0E0,0E0,0E0,0E0,0E0,0E0,0E0,0E0,0E0,0E0,0E0,0E0,0E0,0E0,0E0,0E0,0E0,0E0,0E0,0E0,0E0,0E0,0E0,0E0,0E0,0E0,0E0,0E0,0E0,0E0,0E0,0E0,0E0,0E0,0E0,0E0,0E0,0E0,0E0,0E0,0E0,0E0,0E0,0E0,0E0,0E0,0E0,0E0,0E0],"parents":[2147483647,0,0,1,1,2,2,3,3,4,4,5,5,6,6,7,7,8,8,9,9,10,10,11,11,12,12,13,13,14,14,15,15,16,16,17,17,18,18,19,19,20,20,21,21,22,22,23,23,24,24,25,25,26,26,27,27,28,28,29,29,30,30,31,31,32,32,33,33,34,34,35,35,36,36,37,37,38,38,39,39,40,40,41,41,42,42,43,43,44,44,45,45,46,46,47,47,48,48,49,49,50,50,51,51,52,52,53,53,54,54,55,55,56,56,57,57,58,58,59,59,60,60,61,61,62,62],"right_children":[2,4,6,8,10,12,14,16,18,20,22,24,26,28,30,32,34,36,38,40,42,44,46,48,50,52,54,56,58,60,62,64,66,68,70,72,74,76,78,80,82,84,86,88,90,92,94,96,98,100,102,104,106,108,110,112,114,116,118,120,122,124,126,-1,-1,-1,-1,-1,-1,-1,-1,-1,-1,-1,-1,-1,-1,-1,-1,-1,-1,-1,-1,-1,-1,-1,-1,-1,-1,-1,-1,-1,-1,-1,-1,-1,-1,-1,-1,-1,-1,-1,-1,-1,-1,-1,-1,-1,-1,-1,-1,-1,-1,-1,-1,-1,-1,-1,-1,-1,-1,-1,-1,-1,-1,-1,-1],"split_conditions":[6.146E1,3.25E0,2E0,5.4E-1,1.1051E4,1.9917E2,9.784E3,6.372E3,3E0,3E0,1.4367E4,8.622E3,3.6943E2,2E0,1.4367E4,2.967E3,3E0,9.0231234E-1,2E0,2E0,5.166E3,1.632E1,1.592E1,2E0,1.9116655E2,3E0,1.743E3,3E0,1.13518135E2,1.3644489E2,1.9365E4,2E0,8.2032874E-2,9.784E3,9.334E3,2.47E0,2E0,1.58E0,2.056685E0,4.328E1,1.177E1,4.201737E2,2.7051013E2,2E0,3E0,4.3162193E0,5.389E1,4.7253772E2,1.003543E2,1.6616454E2,4.725E1,2E0,5.988E3,2.877761E3,5.94E3,1.2371E2,2.86E3,7.332E1,2.3867E2,3.141E1,8.512E1,1.137058E3,7.23E1,1.108587E-2,-1.587122E-1,-1.2634568E-1,-1.8949495E-1,-5.038035E-2,-1.4216699E-1,-1.7224565E-1,-1.036556E-1,-9.1453284E-2,-1.2415027E-3,-5.325728E-2,-1.6268297E-1,-1.5568168E-1,-7.487134E-2,-1.2643102E-2,-6.0114462E-2,-4.22379E-2,-1.1964049E-2,-1.5618565E-2,1.9197993E-3,-1.5931405E-1,-2.969574E-1,-1.0600953E-1,-1.8025771E-1,-1.2772882E-1,-6.284221E-2,-3.1840503E-2,-1.2599288E-1,